/*
 * Copyright (c) 2025 EdgeImpulse Inc.
 *
 * Generated by Edge Impulse and licensed under the applicable Edge Impulse
 * Terms of Service. Community and Professional Terms of Service
 * (https://edgeimpulse.com/legal/terms-of-service) or Enterprise Terms of
 * Service (https://edgeimpulse.com/legal/enterprise-terms-of-service),
 * according to your product plan subscription (the “License”).
 *
 * This software, documentation and other associated files (collectively referred
 * to as the “Software”) is a single SDK variation generated by the Edge Impulse
 * platform and requires an active paid Edge Impulse subscription to use this
 * Software for any purpose.
 *
 * You may NOT use this Software unless you have an active Edge Impulse subscription
 * that meets the eligibility requirements for the applicable License, subject to
 * your full and continued compliance with the terms and conditions of the License,
 * including without limitation any usage restrictions under the applicable License.
 *
 * If you do not have an active Edge Impulse product plan subscription, or if use
 * of this Software exceeds the usage limitations of your Edge Impulse product plan
 * subscription, you are not permitted to use this Software and must immediately
 * delete and erase all copies of this Software within your control or possession.
 * Edge Impulse reserves all rights and remedies available to enforce its rights.
 *
 * Unless required by applicable law or agreed to in writing, the Software is
 * distributed on an "AS IS" BASIS, WITHOUT WARRANTIES OR CONDITIONS OF ANY KIND,
 * either express or implied. See the License for the specific language governing
 * permissions, disclaimers and limitations under the License.
 */
// Generated on: 29.11.2025 12:45:41

#include <stdio.h>
#include <stdlib.h>
#include "edge-impulse-sdk/tensorflow/lite/c/builtin_op_data.h"
#include "edge-impulse-sdk/tensorflow/lite/c/common.h"
#include "edge-impulse-sdk/tensorflow/lite/micro/micro_mutable_op_resolver.h"
#include "edge-impulse-sdk/porting/ei_classifier_porting.h"

#if EI_CLASSIFIER_PRINT_STATE
#if defined(__cplusplus) && EI_C_LINKAGE == 1
extern "C" {
    extern void ei_printf(const char *format, ...);
}
#else
extern void ei_printf(const char *format, ...);
#endif
#endif

#define STRINGIZE(x) #x
#define STRINGIZE_VALUE_OF(x) STRINGIZE(x)

#if defined (__GNUC__)  /* GNU compiler */
#define ALIGN(X) __attribute__((aligned(X)))
#define DEFINE_SECTION(x) __attribute__((section(x)))
#elif defined (_MSC_VER)
#define ALIGN(X) __declspec(align(X))
#elif defined (__TASKING__) /* TASKING Compiler */
#define ALIGN(X) __align(X)
#define DEFINE_SECTION(x) __attribute__((section(x)))
#elif defined (__ARMCC_VERSION) /* Arm Compiler */
#define ALIGN(X) __ALIGNED(x)
#define DEFINE_SECTION(x) __attribute__((section(x)))
#elif defined (__ICCARM__) /* IAR Compiler */
#define ALIGN(x) __attribute__((aligned(x)))
#define DEFINE_SECTION(x) __attribute__((section(x)))
#elif defined (__clang__) /* LLVM/Clang Compiler */
#define ALIGN(X) __ALIGNED(x)
#define DEFINE_SECTION(x) __attribute__((section(x)))
#endif

#if defined(EI_MODEL_SECTION) && (defined(__GNUC__) || defined(__clang__))
#define MODEL_SECTION(X) __attribute__((section(STRINGIZE_VALUE_OF(X))))
#else
#define MODEL_SECTION(X)
#endif

#ifndef EI_MAX_SCRATCH_BUFFER_COUNT
#ifndef CONFIG_IDF_TARGET_ESP32S3
#define EI_MAX_SCRATCH_BUFFER_COUNT 4
#else
#define EI_MAX_SCRATCH_BUFFER_COUNT 8
#endif // CONFIG_IDF_TARGET_ESP32S3
#endif // EI_MAX_SCRATCH_BUFFER_COUNT

#ifndef EI_MAX_OVERFLOW_BUFFER_COUNT
#define EI_MAX_OVERFLOW_BUFFER_COUNT 10
#endif // EI_MAX_OVERFLOW_BUFFER_COUNT

using namespace tflite;
using namespace tflite::ops;
using namespace tflite::ops::micro;

namespace {

#if defined(EI_CLASSIFIER_ALLOCATION_STATIC_HIMAX) || defined(EI_CLASSIFIER_ALLOCATION_STATIC_HIMAX_GNU)
constexpr int kTensorArenaSize = 1006032;
#else
constexpr int kTensorArenaSize = 1005008;
#endif

#if defined(EI_CLASSIFIER_ALLOCATION_STATIC)
#if defined (EI_TENSOR_ARENA_LOCATION)
uint8_t tensor_arena[kTensorArenaSize] ALIGN(16) DEFINE_SECTION(STRINGIZE_VALUE_OF(EI_TENSOR_ARENA_LOCATION));
#else
uint8_t tensor_arena[kTensorArenaSize] ALIGN(16);
#endif
#elif defined(EI_CLASSIFIER_ALLOCATION_STATIC_HIMAX)
#pragma Bss(".tensor_arena")
uint8_t tensor_arena[kTensorArenaSize] ALIGN(16);
#pragma Bss()
#elif defined(EI_CLASSIFIER_ALLOCATION_STATIC_HIMAX_GNU)
uint8_t tensor_arena[kTensorArenaSize] ALIGN(16) __attribute__((section(".tensor_arena")));
#else
#define EI_CLASSIFIER_ALLOCATION_HEAP 1
uint8_t* tensor_arena = NULL;
#endif

static uint8_t* tensor_boundary;
static uint8_t* current_location;

template <int SZ, class T> struct TfArray {
  int sz; T elem[SZ];
};

enum used_operators_e {
  OP_CONV_2D, OP_MAX_POOL_2D, OP_RESHAPE, OP_FULLY_CONNECTED, OP_SOFTMAX,  OP_LAST
};

struct TensorInfo_t { // subset of TfLiteTensor used for initialization from constant memory
  TfLiteAllocationType allocation_type;
  TfLiteType type;
  void* data;
  TfLiteIntArray* dims;
  size_t bytes;
  TfLiteQuantization quantization;
};

typedef struct {
  TfLiteTensor tensor;
  int16_t index;
} TfLiteTensorWithIndex;

typedef struct {
  TfLiteEvalTensor tensor;
  int16_t index;
} TfLiteEvalTensorWithIndex;

TfLiteContext ctx{};
static const int MAX_TFL_TENSOR_COUNT = 4;
static TfLiteTensorWithIndex tflTensors[MAX_TFL_TENSOR_COUNT];
static const int MAX_TFL_EVAL_COUNT = 4;
static TfLiteEvalTensorWithIndex tflEvalTensors[MAX_TFL_EVAL_COUNT];
TfLiteRegistration registrations[OP_LAST];

namespace g0 {
const TfArray<4, int> tensor_dimension0 = { 4, { 1,224,224,3 } };
const TfArray<1, float> quant0_scale = { 1, { 0.0037216455675661564, } };
const TfArray<1, int> quant0_zero = { 1, { -128 } };
const TfLiteAffineQuantization quant0 = { (TfLiteFloatArray*)&quant0_scale, (TfLiteIntArray*)&quant0_zero, 0 };
const MODEL_SECTION(EI_MODEL_SECTION) ALIGN(8) int32_t tensor_data1[2] = { -1, 100352, };
const TfArray<1, int> tensor_dimension1 = { 1, { 2 } };
const MODEL_SECTION(EI_MODEL_SECTION) ALIGN(8) int32_t tensor_data2[2] = { 4296, -4296, };
const TfArray<1, float> quant2_scale = { 1, { 1.9064574985350191e-07, } };
const TfArray<1, int> quant2_zero = { 1, { 0 } };
const TfLiteAffineQuantization quant2 = { (TfLiteFloatArray*)&quant2_scale, (TfLiteIntArray*)&quant2_zero, 0 };
const MODEL_SECTION(EI_MODEL_SECTION) ALIGN(16) int8_t tensor_data3[2*100352] = { 
  64, -61, 81, 91, 97, -57, -31, -73, 28, 90, -85, -66, -92, 94, -25, 62, 93, 47, 46, -60, 56, 52, -4, 55, -33, 2, 105, 24, 6, 39, -86, 89, -25, 105, 57, -30, -81, -104, -13, 68, 39, 100, -86, 66, -70, 37, 21, -61, 34, -42, 40, -78, 100, -79, 52, 18, -100, -112, 74, 25, -60, 5, -37, 59, 3, -40, 78, 69, -68, 78, -10, 61, 37, -19, 15, -79, 1, -1, 8, 59, 21, 27, -71, 1, 36, 31, -12, 67, 79, -14, -4, 0, 75, -20, -75, 19, 39, 78, 52, -41, 21, 32, -59, 8, 27, 15, -29, 52, -84, -54, 54, -88, -76, 103, -63, 79, 66, 69, -73, -77, -4, -50, 15, 71, 95, -26, 88, -66, 64, 54, -64, 87, -73, 12, 5, -30, -70, 50, 15, 19, 89, 69, -15, 16, -4, -51, -20, 62, 12, 87, -52, -5, -76, -41, 26, -58, 37, 97, -54, 11, -69, 3, 1, -33, -21, -19, 71, 66, 42, -82, -22, -3, 94, 62, 37, -42, 42, -76, 92, 52, 94, 75, 53, 35, 24, -84, -75, -79, 6, 85, -77, -82, 81, 41, 65, -61, 13, 22, 117, 58, 14, -6, 72, -79, 85, -51, -82, 74, -82, 4, -14, 95, -89, 18, 7, 24, -8, -20, 37, -55, 78, 33, 83, 31, 38, 84, 82, -41, -20, -60, 35, -3, 73, -3, 90, -89, -9, 80, -32, 88, 80, 37, 61, -94, 41, 47, -13, -33, -20, 27, 18, -70, 11, 59, 35, -15, 7, 53, 51, -48, -75, 100, -93, -11, -54, 64, -50, 104, 60, 69, 74, -72, 82, -43, 56, -19, 17, -37, 34, -8, -23, -108, -62, 59, 27, 57, 57, 91, 85, 76, -44, -37, 42, -46, 65, 82, -50, 28, 98, 84, -25, 53, -72, 49, 12, 55, 89, 4, 7, 58, -43, -34, -13, -54, -76, -63, 95, -7, 95, -54, -66, -89, 65, -18, 95, 39, 92, 21, -56, 34, -18, 83, 37, 30, -7, 89, -106, -32, 58, 17, 59, 95, 40, -88, -11, 37, -40, -54, 79, 78, 13, -37, 88, 37, -25, -50, -68, -79, -28, -55, -1, 4, 29, -92, -95, 94, 69, 26, -24, -67, 22, 67, -7, 108, -82, -47, 34, 102, 106, -26, -3, -25, -36, -87, 10, -72, -69, 81, 25, -41, -47, 58, -83, 24, -68, 50, -93, -9, 5, 69, -63, 67, 67, -39, -69, 28, -23, 44, -58, 2, 84, 33, 23, -11, -27, -56, -77, 57, -27, -104, -67, -56, 102, -66, 58, -8, 38, -31, 16, -66, -47, -81, -90, -44, -37, 39, -55, -51, -86, -45, -7, 21, -35, -3, 16, -24, -81, -34, 32, -42, 4, -65, -97, 56, -55, 74, -80, 55, 74, 67, -54, -80, -97, -111, -36, 20, 33, -97, -25, 80, 33, -43, -54, 68, 44, -75, -92, -14, 67, 102, 95, 2, 102, 69, -11, 91, 70, -35, 37, -56, -24, -8, -7, 36, 99, -4, -13, -50, 74, 36, -70, -5, 3, 18, -82, 75, -73, -72, -11, -87, -78, 71, -10, 100, -32, 86, 71, -62, -44, -45, 46, 65, 82, 72, -91, 67, 24, -24, -53, 58, 45, -66, 80, 38, 70, 37, 95, 0, 89, 1, -23, -47, 1, 6, 55, -41, -5, 58, 18, 4, -50, 82, -55, 72, -55, 40, 70, 73, 108, -26, -50, -5, 6, -23, 22, 1, 5, -67, -21, 6, -87, -14, 54, -31, -26, 42, -56, -98, 70, 7, -25, -31, -78, -23, -47, -24, -21, -103, -26, -38, -17, -27, -4, -75, -6, 68, -70, -22, 46, -51, 59, -79, -67, -77, -61, -84, 8, 38, -76, -57, -70, -2, -5, 0, 75, -82, -17, 73, 44, -33, 65, 50, 77, -7, 101, 29, -82, -19, 19, 35, -63, -2, -84, 78, -35, 76, -98, -66, 74, 86, 82, 15, -61, -59, -9, 83, -72, -52, -7, 98, 75, -99, 93, -20, 98, 100, -19, -6, -61, 102, 58, -36, -60, -58, -2, -10, 7, 34, -33, -33, -24, -21, -48, -81, 66, 2, 97, 35, 38, 13, -29, 34, -59, -50, -83, 50, -17, -1, -96, -75, -43, 4, -39, -10, 59, -61, 102, 51, 29, 40, 91, 95, 10, 76, 96, -19, 80, 18, -62, -22, 31, 106, 82, 3, 22, -36, 92, 79, 66, 54, 64, 68, -68, -53, 89, -84, -81, 96, -41, -34, 81, -6, -89, -81, 21, 71, -4, 20, -62, 25, -17, -67, 57, 16, -47, 8, -14, -79, -90, -44, 88, -90, 17, 83, -69, -44, -76, -50, -64, 88, 13, 36, 30, -5, -48, 56, 20, 31, -95, 12, 75, 30, 89, -3, -13, 63, 77, -19, -67, 94, -13, -31, 70, 40, 73, -59, 53, -66, 2, 8, 58, -43, 48, 65, -73, -34, -96, 46, 91, -57, -16, 54, 15, 65, -72, 15, -44, -72, -62, -99, -51, 40, 38, 74, 95, 90, -27, 33, 26, 53, -82, -80, -29, -4, -39, -71, -89, 70, -41, -13, 93, -75, -22, -48, -21, -29, 3, 0, -97, 88, -63, -12, 78, -71, 82, -56, 17, 27, 85, 66, -79, 77, 12, -11, 83, -32, -52, 79, 96, 12, -7, -48, -52, -62, -1, 84, 2, -80, 0, -25, 33, 21, -5, 90, -42, -22, 29, 6, -85, 1, -88, -78, 86, 99, 52, 38, -74, 19, -5, -23, 51, 36, 8, -17, -66, 9, 51, -9, -91, -57, 77, 58, 46, -3, -1, 87, -90, 3, 35, -32, 12, 27, 98, -63, -9, 1, 78, -35, 7, -94, -63, 80, -67, -71, 22, -90, -4, 30, 112, 67, -6, -38, -69, -89, -111, 13, 92, -55, 50, -66, -32, 19, 56, -17, 19, 65, 58, 72, -90, -29, -36, -28, 109, -16, 30, -64, 39, 67, 4, 65, -15, -64, -74, -68, 90, -64, 81, -17, -66, -102, -48, -74, 55, -81, 81, -42, 76, -51, -37, 70, -37, -61, -75, -35, 0, 87, -34, -68, 48, 66, 30, 18, 26, -19, -17, -3, -31, -27, 58, 16, 13, 3, -43, -36, -15, 32, -110, 102, 66, -52, 83, 3, 38, -81, 19, 41, -17, -34, 59, 90, -83, -87, -16, 53, -6, -36, 58, -51, -65, 33, 44, 3, -80, -72, -24, 36, 83, -71, -42, -24, -88, -107, 38, -34, -11, -41, -74, 85, -11, 25, -27, -32, -64, -50, -8, -53, 57, -56, 35, 93, 56, 42, 29, 61, 0, 5, -31, 5, 44, 22, 78, 10, -25, -102, -29, -80, -101, 2, 10, -16, -66, 82, -25, -61, -45, 2, 29, 75, 65, -51, 28, 37, 80, 8, -18, -75, -33, 88, 9, 92, -66, 53, 8, 10, -16, -59, -1, 78, 64, -89, 13, 2, 8, -25, -43, 83, 70, 15, 0, 82, -73, -87, -89, -90, -43, 38, 51, -54, -46, -61, 64, -4, 51, -58, 18, 103, -33, -28, 63, -68, -2, 22, 35, -92, 77, 3, -38, -89, -62, 24, 50, 92, -66, 94, -46, -19, 70, -94, -88, -35, 105, 24, 62, 47, -1, 96, -66, -76, 76, -17, -59, 35, -24, -20, -61, 46, 75, -66, 11, 36, -6, 24, 5, -52, 94, -53, 92, 45, 2, 39, 38, 31, 5, 28, -21, -25, -4, 23, -64, -57, 30, -36, 70, 23, -67, -17, -52, -49, -39, -91, -53, -47, 76, -57, -94, 47, 1, -27, -25, -47, -61, -62, -39, 0, 109, -85, 65, -60, -53, -74, 31, 38, -53, 5, 66, -6, 92, 87, 67, 86, 44, -78, -9, -38, -80, 16, -43, 79, -4, -58, -84, 19, 24, -43, -75, 29, 11, 26, -41, -41, -6, 73, 41, 66, 83, 89, -42, 79, 53, 74, 79, 20, 92, -62, 62, -21, -14, 16, -49, -83, -56, 6, -6, -76, 26, 21, 17, -89, 109, 57, -73, 80, 92, -106, -53, 63, 98, -48, 90, -104, -50, 0, -50, -71, -96, -28, 85, 86, -27, -78, -94, -100, 47, -15, 79, -7, 78, 28, -111, -98, -32, -63, 44, -61, 27, -35, -18, -86, -75, 71, 79, 49, -50, -44, 36, 80, 55, -4, 12, -28, -44, -87, -90, 37, -63, 27, -37, -76, 26, 7, -103, 7, -80, -83, 27, -62, 20, -4, -20, -63, 95, 72, -75, 32, 94, 36, -40, -66, -87, 55, -6, -37, 17, -98, -75, -22, 69, 32, -28, -8, 85, -57, -76, 102, 22, 82, -37, 99, -4, -72, 34, 61, 76, -37, -20, -61, 24, -19, -25, -83, 30, 40, 86, 38, -96, 55, -32, 16, -61, 58, 79, -50, -22, 71, 38, -73, 57, -28, 9, -91, -56, 78, 27, -52, -29, -68, 41, -2, -38, 41, 56, -16, -45, 45, -76, 42, -92, 42, 59, 105, 22, -101, 73, 50, 74, 77, -83, -36, 94, 16, 0, 26, 54, -9, 50, -52, 86, -89, 77, 89, 27, 32, -40, -50, 71, 103, -12, 50, 13, 63, -97, -80, 20, -74, -53, -31, -69, 75, -93, 101, -79, 37, -88, 70, 40, 22, 55, -78, 9, -41, -75, 22, -59, -63, -32, 110, 27, -46, -77, -46, 74, -75, -62, 60, 99, 21, 22, -10, 49, -7, 73, 31, 29, -9, -108, -84, -79, -61, 29, 46, 12, -90, 2, -86, 61, -90, 37, -40, 12, -82, 37, 62, 13, -85, -81, -75, 106, -70, -54, -36, -84, 86, -16, 0, -14, -64, 73, -56, 58, -8, 75, -29, -77, -41, 51, -67, 46, -42, 44, -37, -82, -29, -94, -34, -52, 21, 57, 42, 15, -71, 76, -80, -6, -47, -124, -65, 74, -71, -79, -1, -79, -36, -32, 38, 7, -57, -73, 83, -89, 37, -83, -44, 10, -39, -31, 36, -1, -35, 40, 58, 23, 67, 88, 96, -54, 52, 11, -31, -33, 59, -8, -42, -34, 35, 50, 17, -40, 80, 77, 15, -13, -26, -90, -20, 65, 81, -8, -59, -89, 55, 17, -88, 84, -88, -70, -38, 93, -51, 123, 62, 88, -20, -54, -48, 59, 80, 3, 22, 52, -88, 79, 37, 55, -76, -3, -6, -106, -71, -93, -27, 93, 76, -79, 54, 67, -59, 75, -42, -17, -29, -57, -36, -81, -7, -33, -4, 51, -87, -86, -43, -54, -48, -44, 77, -79, -94, 92, -57, -62, -51, -9, 70, -4, 81, 83, -11, -15, -12, -85, 48, 50, 73, -109, 82, -7, 51, 42, -40, 79, -21, -48, 56, 50, 30, 41, 86, -23, -89, 13, 59, 35, -15, -67, 114, 67, -21, -23, -71, 23, -33, -13, -76, 52, -1, 107, -45, -68, -29, -25, -63, 91, -66, -78, -58, 37, 70, 14, -15, 34, 19, -37, 100, 37, 15, -84, 1, -77, 78, -62, 32, -50, 13, -67, 16, -7, -89, 97, -43, 5, 102, 68, 45, 51, 23, 73, 64, 74, 75, -76, -89, 60, -90, -71, 43, -19, -31, 43, -40, 34, -1, -90, -11, -68, 66, 45, -42, 6, 70, 45, 12, -43, -49, 1, -29, -14, -2, 30, 31, -48, 89, 29, 22, 89, 12, 61, -63, -42, -48, -94, 29, -80, 2, 72, 90, 45, 1, -20, -100, 12, 68, 38, 60, 49, 85, -25, 58, -63, 18, 107, 4, -110, -76, 92, 18, -59, 40, -16, -65, -47, 50, 59, -9, -60, 79, 60, -1, -121, -16, -47, -28, 53, 81, -31, -58, 8, -29, -44, 28, -25, -72, -89, -37, 19, 91, 63, 6, -21, -108, 23, 62, -72, 68, 8, -1, 81, -77, -88, 52, -124, -4, -62, -13, -81, 0, -100, 78, -62, -7, -76, -41, 79, -30, 34, 47, 65, -69, 78, 79, -44, 18, -11, 81, 45, 9, -69, -43, -12, -81, 19, -105, 102, 73, 5, 11, -30, -20, 34, -57, -17, -6, -42, -28, 38, -60, -63, -86, -14, -59, -57, -97, 103, -12, -119, -58, 39, -26, -42, -69, -15, -89, -17, -12, 37, -26, 77, 42, 72, -13, -39, 67, 23, -87, 101, 45, 9, -14, -70, -60, -20, -27, 36, -72, -87, -46, 8, 12, -31, -45, 29, 97, 93, -34, -87, 102, -74, 43, -8, 51, 31, -82, 35, -83, 13, -43, -75, -7, 47, -40, -18, 41, 56, -44, -33, -49, -21, 22, 9, -74, 63, 78, -81, 30, -95, -8, 11, -68, -48, -65, -26, -44, 32, 87, 78, 41, 21, 39, -85, -31, -77, -69, -4, 40, 71, -20, 53, -51, 70, -53, -53, -88, -98, 49, 1, -28, 88, 32, 18, 67, -45, -103, -18, -85, 39, -29, 2, -31, 54, -77, 1, 87, -10, -14, 46, -50, -4, -26, -26, 83, 31, -5, -10, -89, 27, 78, -64, -74, -84, -36, 16, 30, 95, 91, 72, 17, -29, 62, 24, -38, 39, 61, -86, 9, 80, 100, 105, 81, 6, 69, 98, 15, 3, -35, -35, 84, 31, -8, -35, -70, -78, -43, 59, 68, -37, -39, 34, 86, -35, 67, -46, 38, -3, -97, -66, -29, 81, 69, -19, 46, -52, 25, 69, -4, 59, 69, -76, -41, -14, -63, -3, 54, -68, -61, -50, 76, 57, 7, -14, 109, -81, 19, -73, -33, 82, 28, 94, -18, 31, 98, -11, 29, 36, 9, -80, -17, 91, 82, -71, 70, -45, 50, -44, 93, -89, -9, -11, 36, -51, 36, -54, 70, -23, -83, 2, 10, 31, -11, 55, -71, 75, -24, 18, -57, -55, 84, 97, -4, 11, 63, 15, 82, -32, -76, 11, 4, 53, 86, -72, -24, -21, 53, 93, -85, -79, -25, 51, 22, -31, -61, 33, -19, 71, 39, -28, -96, -43, 78, -58, -61, 44, -53, -116, -42, 58, -87, 74, 98, -70, -12, -71, 100, 105, 59, 51, -11, -6, -73, 43, 5, 66, -4, -21, -94, -95, -65, 75, -53, -4, 17, 26, 90, -47, -82, -42, 10, 68, -17, 63, 51, -26, -47, 88, 69, -26, 85, -26, 93, -59, -73, 13, -20, -14, -37, -19, 63, -75, -25, 80, 27, 68, 7, 79, -60, -10, 40, 63, -3, 103, -24, 48, 97, 67, 31, -24, -71, 42, 26, -23, 29, -84, 56, 65, 71, -68, -46, -80, -26, -38, -62, -48, -44, 5, 59, -77, -86, 68, 113, 111, -61, 51, -80, 90, -67, -77, 81, 8, -20, -58, -44, 84, 23, 83, -43, -100, -48, -12, 82, -50, 11, 70, 77, -2, 28, -38, 79, 9, -26, 59, 11, -77, -79, 12, -73, -9, 40, 58, -78, 69, -46, 38, 96, 14, -50, 64, -6, 28, 49, -105, 99, 47, -66, -72, -74, 11, 73, -45, 32, 68, -17, -31, 97, -47, 88, -76, -53, -72, 12, 63, -97, -86, 90, 30, -64, 91, -71, 23, 78, 87, 80, -13, 54, -3, -53, 77, 67, -49, -70, -40, -9, -26, 91, 0, 73, -63, -94, 77, -78, 86, 89, 31, 7, -46, -58, -15, -59, -83, 33, -86, 9, -36, -8, 31, 94, 12, -32, 88, 65, 21, 57, 17, -86, 75, 86, 13, -48, -17, -17, 4, 6, 64, -67, -86, 62, 42, -12, 74, -17, -15, 51, 98, 26, 43, -43, 1, 44, -73, 43, 4, 24, 5, 89, 73, 106, -65, 81, 55, -90, -77, 98, -30, -50, -44, -72, -55, 58, -12, 8, -31, 61, -10, 27, 88, -83, -92, -73, -80, 54, 74, -7, -53, -35, -59, -95, -66, -16, -46, 30, 38, 33, 28, -30, -74, 62, 48, -27, 69, 0, -72, 90, -74, -98, 97, -47, 54, 33, -33, -69, -71, 8, -104, -96, -79, 26, -30, 28, -24, -48, 52, 42, 39, 12, 26, 63, 9, -87, -50, -68, -30, 0, 34, -44, 66, -78, -104, -82, 87, -33, 1, -31, 3, -58, 18, 19, 56, 75, 11, -25, -114, -58, -8, -3, -59, -64, 108, -8, -21, 2, 77, 3, 79, 74, 15, 26, 71, -55, 5, -115, -29, 98, -62, -44, -60, 94, 82, -22, -18, -45, -50, -106, 9, -72, 25, 20, 22, -88, -110, 20, 40, -45, -90, -17, -28, -94, 32, -51, -91, -35, -55, 6, -62, -61, 79, 16, -47, -1, 38, 5, -56, -22, -51, 55, -73, -75, 82, 17, -93, -71, 13, -51, -98, 7, 87, 14, -30, -37, 26, -56, 70, 62, 1, 5, -93, -67, -92, 80, -18, -97, 9, 80, 94, -20, -89, 9, 61, -53, 95, 10, -20, 21, 68, -33, -32, 34, -73, 23, -8, -6, -24, -65, -11, -10, 33, -84, 30, 29, 69, -27, 72, 12, 65, 30, -25, 62, -13, -17, 49, -16, 96, 58, 8, 12, -78, -2, 31, 43, -60, 73, 45, -67, 95, -13, -72, 11, -80, 20, 11, -93, 11, 106, -36, 7, 17, 86, 3, -7, 5, 58, 28, -43, -82, -77, -97, 16, 95, -64, 14, -22, -77, -68, -11, 30, -12, -30, 21, -77, 39, -36, 73, 26, -44, 4, 66, 53, 3, -34, -51, -103, 49, 45, 22, -9, -81, -100, -77, -21, -5, -86, -46, 47, 60, 67, 7, 45, 23, -54, 55, 77, -11, -83, 21, -36, 105, -56, -1, -72, -58, -28, -94, -75, 10, -29, -28, 6, 95, 77, -74, 12, -26, -23, 18, 40, 38, -32, -9, -21, -75, 66, -100, 34, -78, 58, 41, 65, -62, 39, 95, 6, 101, 15, 87, 94, 86, 86, -96, -85, -1, -80, -65, 47, -42, 91, -8, -86, 97, -93, -19, -15, 71, 101, -20, 11, -38, 50, -44, -78, 46, -24, 7, 98, 54, 15, -34, -69, 32, -37, -63, 51, -2, 7, 76, 73, 36, 12, 20, 9, 15, 20, -20, 41, 69, -49, -61, -71, 29, 22, -65, 84, -38, -7, -11, -87, -93, -26, -79, 15, -80, 73, 90, 97, 91, -44, -46, 86, -70, 52, 62, -61, -5, -67, 39, -67, -52, -37, -69, 105, -84, -47, 79, 79, -34, 25, 105, 68, 46, -27, 54, 2, 105, -20, 31, -65, -27, -26, -26, 79, -86, -37, -23, -108, 70, -22, 73, 42, 68, 24, -35, -35, 34, -50, -67, -33, 75, -54, 14, 93, -11, 28, 12, -49, 42, -10, -12, 59, -17, -25, 97, 51, 67, 36, -41, 32, -98, 33, -98, -4, 86, -34, -105, 28, 57, -119, 84, -35, -66, 77, -52, 46, 66, 85, -43, -41, 62, -51, -106, 46, 52, 57, -26, -83, 33, 46, -71, 41, -61, -94, 11, -72, 76, -69, 76, -25, -3, 6, 16, 54, -49, -97, 47, -51, 58, 87, 58, 8, 75, 68, -78, 58, 29, 39, 10, -44, -10, -20, -38, 58, -5, -47, -83, 74, -79, 61, 79, 0, 70, 66, 0, 76, 37, -60, 7, 1, 35, 78, -53, -65, 80, -49, -109, -67, 16, 47, -64, 73, -20, 79, 75, 39, 44, 77, -36, -1, -44, 40, 47, 58, 83, -56, 70, -65, -51, -9, 2, 35, 23, -60, 80, -89, 1, 24, -15, 66, -8, -91, -57, 2, -49, -81, 83, -22, 48, -96, -71, 35, -39, 22, 87, -19, -84, -27, 35, 79, 70, 94, 34, -65, -87, 17, 10, 16, 82, 7, 64, 34, 90, 94, 26, -20, -33, -53, -27, -54, 4, 77, -67, 28, 82, -86, 31, 77, -45, -29, -20, 98, -38, 95, -10, 50, -35, -28, 94, -70, -66, -94, 94, 12, -87, -109, 77, 47, -24, -75, 24, -95, 95, 52, -61, -24, 11, -34, 42, -84, 91, 41, -22, -8, 39, -34, 16, -31, -61, -79, 12, 52, -40, -60, -26, 54, 24, 50, -23, -91, 89, 53, -80, -75, -16, 14, 25, 32, -76, 55, -41, 66, -55, -110, -85, -98, 103, 89, -6, -65, 47, -26, 50, -8, 76, -57, -106, 56, -91, 75, -89, -53, 40, -74, -44, 42, -11, 48, -80, 65, 36, 49, 54, 32, 93, 40, -19, -3, -64, 70, -63, 80, -83, -67, -6, 60, -95, 74, 14, -78, -55, -45, 3, 13, 93, -104, -73, -17, -83, -97, -59, 56, -29, -43, -25, 80, -52, -104, -32, 26, 31, -22, 36, 54, -41, -98, 26, 12, -3, -98, -74, 21, -21, -93, 13, -29, 89, -92, -45, -93, -6, -78, -37, 2, 6, -76, -8, -34, -28, 34, -88, 58, 58, -50, -58, 10, -47, 40, -11, 35, -76, 86, 58, -49, -81, -65, -69, 18, 51, -27, -43, 28, -77, 79, -42, 41, -78, 48, -63, 45, -60, -39, 8, -90, -6, -58, -35, -85, -60, -97, -67, 45, 33, -65, -7, -14, -44, -39, -104, -83, -23, 63, -23, -43, -79, 67, 19, 97, -13, -5, -30, -95, -10, 44, -5, 82, 50, -34, 17, -37, 30, -55, -29, -76, 56, -59, -13, -88, -62, 46, -19, -28, 7, -51, -40, -102, -82, -70, -45, -90, -48, 73, -79, -71, 100, -84, -64, -28, 34, 23, -88, -53, 66, -67, -7, -14, -71, 0, -97, 80, 55, 40, 11, -28, 99, 101, 82, -44, 8, -30, 50, 0, -3, 100, -55, 8, 8, -20, 61, 25, -52, -66, 48, -31, 68, 76, 73, 67, 82, 47, 47, -59, -70, -28, -34, 44, -90, -48, 81, -48, -82, 62, -21, 13, 30, -4, 12, 59, 97, 50, -6, -44, -42, -29, 10, -27, -11, -98, -24, -72, -59, 19, 34, -12, 65, -48, -53, -104, -71, -64, 28, -13, -74, 35, 60, -34, 2, 45, 37, -32, -71, 75, -34, 50, 94, -51, -26, 1, -33, -79, 86, -75, 1, -61, -9, -27, 57, 76, -106, 8, -13, -21, 46, 11, 38, -81, 97, -27, -86, -89, 70, -1, -32, 45, 29, -91, -66, 8, -32, 72, -11, -4, -64, 61, 61, 54, -55, 4, 3, -89, 20, 14, 59, 82, -65, -78, -79, -57, 51, -64, 21, -78, -34, -16, 10, -85, -36, -33, 25, 49, 90, 62, 41, 3, -83, -45, -68, -75, -85, 17, 82, -36, -3, 0, -80, -87, 96, 72, 92, -14, -33, 0, 20, -96, 20, 68, 40, 44, 53, -35, 48, 22, 91, 1, -74, -60, 0, 80, 4, 80, 33, 5, 90, 75, 2, -11, 70, -53, 22, 12, -46, 60, -38, -75, 84, -94, 58, 54, 63, -8, -47, 76, -13, 86, -27, 11, -87, -34, 64, 71, 50, 74, 93, -91, -72, 69, 19, 16, 47, 30, -18, -76, -47, -10, -8, 66, -93, -16, 20, -44, 18, 28, -87, 83, 50, 26, 88, -27, 78, -49, -13, -66, 100, 43, -70, 96, -41, -64, -4, 32, 31, -7, -59, 16, 7, -93, -29, -58, -17, -59, 71, 95, 23, -44, 82, 95, -47, 25, -53, 28, 104, -42, -30, -50, -63, -67, 50, -74, -31, -85, 67, 107, 92, 62, -12, -10, -85, -34, 15, -84, -19, -61, 62, 92, 75, 78, 73, -18, 79, -26, -82, 43, -71, 11, -72, -10, 103, 59, 16, 44, -50, -18, -9, -44, 49, 87, 62, -32, 49, -93, 14, 14, -80, 28, -7, 49, -31, -47, -14, -83, 57, -63, -7, -93, -28, -92, 46, 86, 86, -6, -20, 32, -14, -64, 53, 24, -18, -58, -2, 84, -40, 9, 12, 24, 58, -103, 22, 17, 83, -120, -47, 100, 11, 82, -13, 80, -80, -77, 70, 75, 52, 15, -52, 29, 82, -24, -52, -6, -65, 51, -16, 50, -47, -2, 7, 95, -47, -24, 53, -74, 110, 99, -34, 14, 89, 43, -64, -2, 57, 51, -57, -5, 77, 29, -52, -9, -18, -61, 21, -49, 52, -7, 18, -30, 8, -28, -9, 32, -5, -68, -115, 33, -57, -25, 9, 67, 77, -91, 12, 25, 49, -92, -99, 67, -18, -26, -19, -69, 78, 31, 58, 12, -39, -89, 17, 49, -75, -7, -58, -97, 13, -11, -41, -50, -61, 86, -32, -59, 85, -71, -53, 75, 1, 80, -99, -22, 75, -38, 62, -78, 81, 73, 79, -91, -43, -42, -8, 72, 0, -68, 75, 77, -59, 65, 92, 21, -6, -21, 45, 79, -19, -15, 13, -77, 54, 78, 57, 92, -14, -56, 53, -23, 67, 24, 99, -95, 39, -88, 38, -58, 11, -64, 90, 2, 71, 48, -82, -104, 76, -16, 94, -86, -108, 91, 8, 57, 52, -85, -65, -12, 59, -91, -74, 85, -91, 87, 74, 8, -110, -35, 62, 18, 14, 62, 71, -42, -90, 58, 102, 22, -54, 10, 2, -74, 40, 1, -62, 68, 80, -9, -65, 34, -98, 48, 50, -35, -48, -34, 15, 83, -15, 3, -11, -62, -27, 54, -89, 69, -25, 23, 24, -38, 93, -24, 88, -33, -8, 22, 88, 19, -51, 10, 76, 65, -60, 24, -112, 104, -87, 49, -41, 83, -75, 14, -88, 3, -39, 1, 73, -46, 60, 42, -37, -93, -101, 122, 75, -75, 0, 5, 88, -12, 46, -52, 50, 56, -85, -81, 2, 2, -25, -70, -91, -36, 5, -61, 20, 75, 39, 87, 71, 37, 88, 62, 38, -67, -34, -89, 12, 77, -41, 106, 11, -52, 70, -3, 24, 76, -95, -34, -5, 28, 9, 68, 15, 78, -17, -39, -75, 57, -75, -31, -89, 43, 98, -5, 41, 73, 46, 18, 39, 35, 8, -4, 70, 78, 72, -37, -32, -4, -51, -40, 2, 15, 15, 98, -101, -61, -83, 0, 99, 41, 55, 41, -22, 47, -20, -3, -16, 81, -63, -81, -78, 9, 71, 22, 16, -2, -17, 36, 83, 21, -79, -57, 73, 73, 69, -10, -34, -8, 32, -34, 50, 18, 101, -17, -2, 71, -47, -66, 86, 87, -6, -33, -61, -71, -24, -16, -5, 17, -109, -53, 82, 55, -28, -57, 53, 69, -32, 18, 11, 66, -106, 5, 29, 49, 15, 52, 8, 89, -96, 24, 47, 43, -44, -29, -56, -29, -24, 68, 93, -63, -13, -85, -27, 84, 18, 86, -1, -8, 8, 40, 89, -90, -28, 85, -62, -102, 105, 10, -51, 39, 52, -86, 3, -65, 99, 37, -83, 31, 73, 78, -19, 58, -24, 12, -5, -66, 107, 7, -98, 33, -47, -62, 0, 36, 52, -33, -36, 19, -28, 26, -40, 1, -74, 113, 115, -49, 87, -31, -40, 17, 46, -93, 50, 78, 88, -50, -32, -47, -27, -71, -112, -43, -61, 109, -69, 52, -7, -93, -98, -56, 85, -16, -92, -23, 85, -89, 44, 64, -46, 15, -1, 82, -18, -31, -106, 10, -86, -83, -53, -6, -33, 17, -13, 1, -18, -43, 3, 67, -52, 89, -68, 83, 9, 20, 21, 56, -21, 90, -53, 49, -48, -98, -41, -72, 38, -3, -57, -21, 57, -10, -13, 48, 26, -84, -22, -5, 49, 31, 97, 48, 38, -33, -41, -60, 41, -96, 89, 46, -3, 83, -94, 33, 93, -6, -65, 26, -14, 56, -53, 18, 77, 46, 57, 80, -81, -33, -120, 24, -28, 80, 59, 81, 102, -13, 55, 4, 49, -49, -3, 96, -18, 66, -4, -8, -7, 50, 20, -51, -82, -58, -26, -26, -28, 14, -2, 47, -70, -43, -23, -77, 11, -37, -28, -56, -57, -7, -61, 42, 49, -6, 62, -59, -34, 16, 13, 61, -81, 73, 26, 69, 18, 26, -109, 95, -45, 17, 0, -43, -55, 101, 66, 76, 53, -25, 1, -57, -10, -42, 45, -71, -37, -82, -48, 64, 52, 69, -10, 66, 52, -79, -72, -12, -21, -75, 44, -66, -4, -60, -48, -1, 33, 18, 61, -104, 81, -20, -21, -20, 6, -51, -11, -69, 23, -28, 65, 74, -13, -72, -65, -88, -52, -83, -11, -97, 69, -92, 36, -34, -30, -62, -2, -15, -33, -68, -37, 35, 39, 43, 87, -98, 25, 102, -30, -24, -30, 61, -14, -94, -59, 60, -51, -29, 47, -80, -7, 9, 82, -79, 56, 40, -32, -96, -48, -20, -87, 67, 8, -71, -39, 89, -13, 76, -27, -84, -34, -93, -21, -91, -96, 66, -79, 1, 35, -77, 0, -69, -83, -99, 10, -31, -39, 4, -64, 71, 85, -75, -21, -42, -50, -36, 1, 59, 0, -73, -8, 22, 93, 78, 18, -35, -28, 91, -65, -20, -70, -22, -2, 33, 86, -77, -37, -74, -3, -20, 13, -40, 73, 50, 40, -73, -27, -29, -44, 56, 23, -47, -91, -58, 23, -91, -8, -14, 66, -85, -38, -37, -3, -11, -68, 56, -69, -27, 75, -97, -7, 92, 77, -79, 82, 59, -83, -65, 34, 52, 58, 36, -8, 68, -88, 17, -100, 79, -93, -97, 37, 99, 64, -3, -10, 3, -13, -8, -79, 6, 100, 57, 48, -61, -71, -33, 77, -47, -17, -26, -11, -9, -58, 39, 103, 53, -1, 25, 54, 21, 54, 61, -67, 90, 52, 91, 53, 13, -7, 74, 68, 75, -42, -10, -77, 58, 68, -56, 45, -5, 26, -16, 76, 55, -35, 23, 49, -32, -61, -10, -57, 21, -42, -34, -55, -10, -47, -66, 55, 70, 29, 47, 9, -10, -98, 5, -91, -77, 87, 88, -48, 59, 41, -64, -102, 88, 72, -82, 54, -13, -92, 50, 29, 25, 8, 33, 34, -94, 94, 39, -55, 67, -83, 40, 43, 44, 28, -64, -56, 3, -27, 29, 20, 35, 90, -44, -10, -49, -4, -81, -100, -25, -77, 21, 76, 30, 96, 12, -40, -96, -59, 2, -98, 100, -105, 13, -67, -82, 70, -67, -97, -7, -21, 92, -39, 72, -77, 34, 61, -81, 26, 68, 112, -10, -7, 32, 96, 61, -2, 31, -41, -43, -54, 98, 54, 63, 58, -54, -50, 34, 73, -4, 53, -65, -65, 70, 52, 70, 19, -21, 73, 62, -26, 102, 84, 16, 84, 23, -16, -51, -29, 7, 76, 13, 29, 77, -29, -66, 4, -78, 11, -52, 64, 92, -3, 58, 16, -10, 35, -38, -62, 63, 30, 43, 60, 107, 22, 8, -10, -16, 10, -107, -100, -19, -33, 92, -12, -64, 30, 16, 3, -39, -50, 66, 86, 66, 24, 56, -48, 78, 43, 41, -88, -103, -107, 11, 91, 102, -45, 73, -8, -92, 31, -71, -86, -44, -90, -84, 63, -96, -44, -37, -43, 12, -28, 35, 94, -64, -42, -49, 91, 87, -12, 91, 7, 98, 19, -87, -57, 26, -51, -9, 95, -29, -54, 11, 26, 63, 68, 27, -31, 75, -76, 55, 57, -38, 45, -29, 30, 61, 67, -34, -75, 5, 93, -71, -25, -69, 6, 102, 79, -96, 30, 19, -46, 71, -76, 81, 48, 95, -70, -85, -30, 54, -7, 94, 56, 27, -56, -51, 83, -91, -99, 47, -52, -55, -25, 95, -105, 4, -3, 94, -97, 37, 43, -37, 58, -13, -95, 46, -15, 3, -67, -52, -38, 92, -92, 16, -15, -53, -59, 83, 19, 30, 78, 79, -58, 73, 20, -23, 71, 16, 63, -51, 84, -106, -73, -24, 0, 57, -32, 71, 30, 35, 72, -53, 64, 39, 56, -14, -25, 72, 18, -25, -11, 80, 42, 30, 62, 74, -92, 79, 98, -99, 78, -82, -95, -44, -19, 19, -55, 77, -49, 8, -24, -12, -42, -16, 70, -16, -78, 75, 72, -32, 27, -4, -83, -88, 33, 68, -20, 71, -10, -27, 70, 2, -12, 43, -50, -35, -33, 57, -92, 69, -105, 57, 40, -19, -80, 6, -26, 39, -41, 22, 43, -19, 82, -29, -87, -16, -102, -71, -10, 27, 82, 24, -33, 97, 67, -40, 60, -53, 116, -48, 64, 60, -55, 61, -43, -39, -20, -82, -86, 36, -36, -18, -64, -24, -9, -67, 33, 57, 77, 25, -77, 26, 48, 113, 0, -90, 48, 77, 80, 10, 25, -32, 56, -62, -64, -35, -19, -22, 25, 68, 23, 26, -23, -74, 12, 35, -40, -49, -80, -92, 41, -63, -34, 90, 65, -35, -95, -104, -66, 77, 63, -91, -83, 36, 4, -55, -38, -100, 95, 47, -66, 40, -17, 76, -17, 46, -101, -61, -1, -74, 66, -8, 31, -39, -8, 92, 79, 111, -93, -9, -22, -57, 67, -11, -28, 55, 57, 91, -36, 19, 74, 64, 58, -5, 89, 27, -118, -10, -39, -62, -6, -76, 34, 82, -10, 64, -58, 11, 61, -78, -18, -34, 58, 69, -87, 78, 29, -21, -51, -45, -39, 78, 72, -13, -51, -24, 77, -73, 48, 16, -30, -86, 84, -72, -99, 77, 70, 78, -29, -73, 80, 77, 20, -89, -22, -69, 64, -63, -96, -26, -61, 91, -83, -40, 45, -39, -50, 73, -38, -50, 89, 21, 54, -65, 8, -85, 71, -84, 72, -46, -80, 82, 49, -1, 54, -74, 1, -77, -46, -24, 16, -52, -11, 32, 3, 20, 11, -22, 40, 8, 17, -11, 107, -81, 92, -59, -48, -95, -102, -41, 9, 46, -80, -90, 5, 8, 76, 30, 12, -76, -97, 11, 15, 16, 35, -61, -13, -81, -17, -95, -8, 31, 0, 111, 53, 73, 11, -15, -23, 31, 83, 10, -22, 17, 0, 72, 76, -98, -69, -27, 57, 41, 64, -34, -53, -7, -66, 97, 73, -16, 51, -31, -65, 54, 91, 108, -40, -4, -78, 0, 37, -9, -19, -76, 27, 80, 65, -39, -30, -52, -6, -28, 17, -6, -10, 96, 16, -70, -33, 89, -86, -2, 0, -32, -72, -42, -10, 43, 105, 20, -13, 31, -43, 24, -38, 31, -29, 88, -63, 9, -74, 6, 107, 18, -29, 7, -9, -57, -28, 97, -38, -10, 13, 52, -93, -13, -84, 16, 4, -80, -34, -39, 12, 84, -47, 9, -73, -59, 49, -95, 0, -60, -87, 81, -47, -3, 29, 84, 7, 17, -73, 34, -60, 24, 97, -16, -99, 64, 65, -28, -46, 21, -101, -45, -76, 48, 29, -50, -39, -79, 2, 35, 101, -99, 56, 0, 99, 78, 47, 83, 9, -75, 33, 66, 18, 75, -80, 14, 62, 40, -64, 35, -54, -11, 27, 100, 8, 59, -39, -16, 17, -40, 45, 39, 60, -39, -12, 10, -84, -45, -103, 8, 87, 43, 72, 20, -50, -22, 93, 0, 101, 79, -66, 93, 59, 27, 83, 55, -15, -90, 51, 14, -22, 97, 24, 82, -16, -68, -6, -27, 70, -15, 4, 81, -15, 98, 27, -1, -48, -61, -76, -55, -95, 39, 81, -40, 42, -82, -88, -48, -103, 66, -79, 35, 57, -42, -47, 75, 27, 31, 2, 4, -26, -33, -30, 27, 68, -68, 38, 59, -45, 3, -31, -56, 73, -99, 27, 42, 47, -22, 53, 64, -23, 64, -35, -74, 80, -6, -7, -10, 60, -87, -54, -52, 63, -45, 81, 83, -44, 68, 83, 42, 78, 22, 13, 1, 2, -22, -39, -22, -69, -47, 21, 23, -24, -56, 44, -11, 57, 78, -13, -72, -54, 67, -64, -71, 44, 7, 22, -41, 29, -49, -49, -22, 70, -4, 4, -29, -74, 23, 86, 37, -81, -32, -103, -16, 82, -75, -50, 8, -81, 89, 42, -5, 104, -6, 22, 75, 36, -16, 24, -51, 6, -63, -34, 41, 12, 6, 97, 35, 35, -19, -39, -89, -39, -50, -11, 52, 85, 14, 95, -67, -10, 89, 8, -40, 97, -89, -52, -111, 83, 59, 10, 15, 61, 9, -5, -21, 24, 39, 58, -80, 3, 95, -16, 28, 92, 34, -72, -70, 55, 16, 72, -24, 49, 80, 60, 79, -46, 87, -69, 25, 68, -18, -83, -63, -17, -14, 23, -81, 32, 9, 32, -72, 88, 16, 13, -63, -63, -11, -44, -89, 41, -48, 92, 63, -76, -1, -107, 93, 18, -31, -23, 78, 69, -57, -83, 6, -35, -83, 28, 24, 87, 35, -48, 100, 11, 83, 29, 56, -68, 45, -45, -96, -33, 6, -65, 20, -50, 0, 47, -10, -45, -33, 72, 13, 22, -79, -72, 13, -71, -81, 21, 48, -68, -91, 0, 66, 0, -31, 83, -77, -84, 47, -113, 5, -78, -63, -94, -54, 86, -85, -59, -55, -3, -74, -49, 51, -84, -15, -41, 47, -19, 41, -41, 58, 10, -14, -38, 39, -10, 49, -8, 2, 31, 58, 5, 9, -90, -76, -11, -2, 35, -52, 4, -13, 62, 27, 4, -11, -40, 25, 17, -12, 36, -61, 104, -17, 19, -74, 74, 1, 44, 41, 88, 84, 99, 22, -55, -11, 37, -41, 63, 51, -106, 93, -54, 0, 70, 13, 77, -41, 28, 68, -53, 11, 52, -4, 72, 105, 37, -29, 23, -111, 75, 2, 20, 26, 75, 103, -116, -3, 52, -71, 30, -27, -2, -24, -86, -60, -6, -79, -18, 8, 15, 72, -10, 44, 67, -32, 16, 12, 9, 18, -71, 72, -44, 52, 29, 63, -61, -97, 38, -52, -4, 82, -33, -50, 85, -71, -33, -66, 69, 86, 55, 33, -25, -11, 26, -67, -13, 72, 103, -6, -71, -12, -31, -2, -50, -28, 93, -68, -88, 14, 27, -84, -49, -96, 50, -65, -2, 66, 16, 59, -64, -54, 89, 16, 60, -108, -27, 72, -38, 5, 8, -40, -21, -7, 63, -64, 106, 33, -21, 98, 70, 67, 24, 6, -64, -107, -69, 12, 4, -12, -46, -27, -20, -56, 42, -51, 1, 54, 28, -78, 10, -68, 12, 31, -73, -58, 63, -71, 75, -94, -55, -36, -80, -25, 109, 9, -4, -83, -55, 83, -6, 61, 47, 28, -31, 55, 99, 73, 57, -15, 48, 99, -81, 70, -84, -2, -63, -17, -20, -60, 28, 97, -99, -33, 45, 14, -39, 60, 74, 4, -75, 23, -9, 21, 87, -32, 72, 62, -79, 27, -13, 85, -72, -86, -5, 84, 86, -66, 85, -27, 91, 57, -40, 93, 26, -35, 4, 21, 54, -67, 19, -14, -53, -48, -64, 91, -17, -72, -39, -4, -76, 69, -40, -30, 35, -97, -62, 57, 27, 25, 80, 94, 34, 23, -45, 69, 79, 61, -17, -33, -34, 47, 113, 59, 1, -45, -9, -53, -25, 82, -45, -88, 39, 43, -27, 49, 12, -56, 98, 11, -73, 51, -69, -3, 31, 92, -71, 76, -13, 80, 81, 47, -67, 50, 49, -30, -51, 86, -38, -73, -1, -28, 64, -42, -90, 27, -81, -96, 29, -91, 55, -77, -81, 4, 2, 85, 55, -76, -106, -55, -13, -9, 20, 65, 55, -61, -14, 68, 59, -97, 54, -22, 37, -71, -12, 11, 12, 72, -83, -9, -63, 85, -19, -77, 45, -44, -73, -38, -29, -37, -56, 89, -55, -8, 73, -84, -61, -85, 104, 60, 28, -59, -76, 84, -1, -9, -61, 15, -6, -67, 77, 34, 16, -24, 91, 24, -22, -84, 17, -104, -9, -1, -45, 99, -3, 28, -84, 37, -114, -68, -61, 24, -41, 23, -9, -65, 23, -83, -1, -61, 96, 52, -58, 75, -24, -5, 71, -2, 104, 75, -67, -60, 31, -47, -82, -37, -17, -60, -12, -58, -35, 4, 70, 19, -6, -94, 26, -15, -89, -2, -65, -106, -47, -17, 12, -95, -99, -36, -9, -35, 14, 99, -96, 87, 112, -42, -71, 49, 9, 86, 77, 106, -44, -97, -85, 36, -55, 7, -85, 7, 26, -92, -4, -12, 74, 95, 10, 46, 29, -89, -55, 13, 32, 34, 44, -80, -4, -76, -99, 99, 65, 52, 29, 10, -90, -101, 34, 25, 90, 6, -55, -52, 7, -5, -8, 26, -26, -66, 103, 32, -11, -20, 54, 80, 19, 87, -79, 4, 82, -93, 15, 26, 80, -82, -67, 38, 4, 50, -15, -123, -98, 13, 0, -19, -108, 24, 20, 16, -70, -82, 57, -19, -107, -91, -70, -4, 21, -20, 79, 4, -7, -34, 41, 79, 29, 79, -18, 49, -24, -3, -81, 74, 89, -21, -61, -74, -5, 14, -30, -67, 70, 18, -79, 66, -42, -28, 15, 50, -53, -36, -17, -18, 6, -102, 48, -34, -40, -49, 46, -53, -60, -73, -68, 60, -90, 94, 68, -43, -84, 24, -65, -15, -4, 50, 94, 63, -51, 98, 93, 43, -65, 93, -92, 46, 28, -113, -79, 95, -32, 63, -23, 65, -11, 88, -83, -48, -39, -87, -64, 44, 29, 78, -45, 35, 20, 8, -29, 6, 25, 88, -62, -73, 43, 3, -33, 70, -26, 67, 6, -50, 43, 56, 81, -48, 34, 30, -98, -54, 22, 8, 53, 48, 9, -48, 77, -42, 60, 62, -3, -24, 59, -26, 13, 14, 5, 106, 11, -59, 14, 39, -2, -13, 23, -47, -11, -11, 70, 90, -49, 35, -46, -28, 19, 84, 23, 57, -50, -23, 56, -104, 34, -14, 49, -93, -8, 83, 64, -62, -82, -12, 33, 1, 28, 69, -54, -51, 28, 46, -29, 70, 81, 61, -87, -41, -50, 12, 28, 40, 80, 37, 2, 3, 33, 52, 53, 26, -7, 30, 72, -47, -50, 62, -87, 75, -31, 91, -31, -95, 0, -104, -57, -94, -68, -38, -30, 50, 37, 89, -68, -80, -45, 54, -43, -14, 103, -66, 11, 37, -39, -73, -30, 32, -36, -76, -66, -96, -9, -93, 40, 24, 96, 52, -112, 50, 54, -57, 64, 13, -108, -47, -23, -55, -28, -78, 77, -94, -35, -43, 32, -52, -83, -29, -66, 63, -77, 5, -10, -4, -74, -78, -70, 61, -64, -54, -74, -85, 21, -99, 24, -10, 79, 83, 65, -65, -15, -91, 14, -78, 24, -31, -23, 15, 13, 18, -83, -98, 85, 53, 87, -98, -78, -80, -12, -39, 49, 19, -93, -44, -2, 6, -16, -62, -75, -33, 22, 18, -89, 72, 81, -78, -51, 9, -71, 90, 96, 113, 58, 25, 45, 15, 83, -27, -90, 79, 86, 46, 34, -2, 72, -75, -35, -86, -84, 3, -35, -16, -81, -46, -33, -89, 87, 2, 44, -66, 33, -22, 19, -51, -23, 42, -94, -79, 22, -108, 13, -21, -20, -91, 47, 24, -120, 12, -11, 7, -6, -69, 48, 63, 48, 25, 14, -23, 59, 3, -91, 12, -60, 37, -95, 71, 35, 8, 34, -13, -45, 55, -51, 77, -6, 21, 15, 40, 31, -26, -72, -100, -48, 87, -23, 91, -43, -98, 26, -21, 65, -97, -104, 68, 92, -66, -15, -40, 97, 58, -47, 57, 87, -6, -65, -16, -4, -5, -81, 44, 50, -22, -14, -113, -35, -20, -88, -71, 25, 3, 12, -7, 8, 9, -40, -100, -107, 41, -36, 66, -47, -28, -48, -66, 53, -103, -51, 21, 11, -50, 46, 63, -79, 91, -33, -32, 89, 67, -24, -85, 6, -21, 69, 41, -91, 102, -12, -16, 11, 57, 87, -52, -83, 21, 20, -12, 68, 1, 13, 93, 83, -5, 64, -22, -8, 62, 47, -22, -13, 73, 53, -30, -71, 86, 7, -2, 28, -26, -48, 76, 0, 56, -48, 48, 36, -26, -73, -81, 89, -47, 73, 51, 87, -72, 11, 65, 76, -16, -46, 53, -86, -75, 16, -78, 65, -97, 42, -28, 97, 86, -28, 43, 50, 2, -47, -28, 23, 96, -8, 17, -73, -11, -24, -54, 48, -57, -78, -50, -85, 6, 9, -8, -3, -42, -90, 22, -14, 26, -7, -6, -6, 16, 3, -1, 108, -7, 92, 16, 66, -108, -7, -11, 32, -64, 48, -74, -49, 29, -68, 19, 1, -83, -11, -52, -32, -59, 30, 24, 78, -67, 55, -25, 77, -32, -96, 6, -16, -92, -69, -102, 28, 31, -63, 27, -7, -96, 70, 39, 38, -20, 97, -80, -22, -46, -75, 70, 23, 35, -47, 20, 17, -54, 20, 49, -30, 102, -5, 34, 76, -30, 57, -94, 46, 34, 9, 42, 63, -22, -23, 7, 25, 95, 17, -7, -49, -56, -7, 60, -18, -21, 81, 100, 28, -63, -17, -14, 25, -10, -100, -9, -7, 73, -98, -65, -55, 7, 65, -2, 71, -20, 61, -35, -10, -95, -49, 23, -3, -47, -26, -4, 0, -92, -64, -39, 35, -37, -55, 75, 46, -39, 51, 81, 87, -23, 47, -34, -24, 78, -65, -84, -86, 79, 24, 90, -34, 53, -44, -78, 49, -82, -38, 82, -33, -10, -63, -53, -91, -89, -96, -7, -18, -88, -22, -104, -36, 86, -7, -12, -25, 36, 28, 95, 37, -84, 73, 65, 20, 31, -70, 62, -17, -78, 76, -49, 94, 65, 13, 4, 56, -61, 74, 68, -4, 22, 5, 77, -16, -58, 21, -103, 33, 58, -53, 89, 44, -9, 73, -56, -36, -94, -94, -81, 25, -105, 20, -72, 5, 31, 47, -52, 79, -53, 28, 89, -84, 91, 46, -40, -37, -48, 52, -13, 8, -28, -32, -20, -18, 26, 109, 39, 67, 89, -8, 99, 34, -2, 51, 48, 48, 62, -95, 52, -44, 75, -74, -90, -81, -25, 38, -48, 60, -91, 6, -15, 44, 9, -55, 68, -89, 81, -72, -73, -67, 28, 35, 64, -50, 69, 8, 40, 59, 58, 1, 77, -45, -1, 34, -42, -96, -28, -85, -13, -111, -24, 84, 54, 78, 7, -36, -58, 44, -73, 64, -80, 78, 35, -9, -83, -55, 24, 25, 7, -60, -68, -5, -24, 20, 7, -25, -22, 85, 64, 17, -85, -57, -50, -5, 3, 25, 84, 83, 61, 79, -28, 99, -8, -55, -36, 4, 9, 0, -57, 96, -108, -4, -69, 90, 3, -16, -97, 109, 95, -45, -17, 42, 41, 4, 53, -81, 5, -66, -29, 28, 88, 3, -45, 84, -13, 89, 84, 48, 78, 100, 90, 35, 42, -70, -26, 92, 89, -57, 9, -77, 97, -30, -36, -23, -80, -64, 46, 27, 40, -43, -26, 39, -38, 13, 11, 17, 15, -19, -41, 47, -25, -67, -30, -19, -71, 6, -82, -12, 70, 47, 3, 61, -83, 6, -7, -100, -84, 60, -10, 63, -65, 45, 66, 25, -10, -54, 68, -19, 33, -19, -94, 7, -63, 13, -66, 86, 43, 50, -80, -52, -41, 28, 37, -91, -50, -79, -1, 101, -26, -14, 41, -64, -20, 76, -60, 70, 28, 4, -9, -47, 41, 84, 34, 45, 52, -3, -32, 65, 53, 84, -78, -13, 29, 17, 71, 30, 42, 17, -92, -26, 77, -45, 40, -56, 46, 53, -20, -53, 48, 95, 45, -102, -32, 64, 26, -6, 32, -54, 14, -88, -60, 19, 60, 7, 28, 94, -9, 81, -73, -42, 19, -36, -27, -98, -38, 53, 51, -47, -55, -26, 45, 52, 31, 6, 33, 4, 27, -6, 10, 18, -65, 50, -15, -66, -98, -68, -54, 61, -30, 90, 83, 22, -65, 91, 8, -19, -40, 37, 87, -46, -12, -60, 59, 40, -72, -41, -43, -30, 69, 44, -15, -94, 73, -74, -27, -58, 71, -49, 101, -48, 4, -24, -58, -60, -1, -30, 9, 32, 19, -43, -88, -67, -33, -14, -3, 54, 6, 62, 79, 49, -13, -96, 32, -38, 97, 100, 24, -10, 91, 95, 16, -5, -44, -64, -75, 91, 14, 6, 63, 77, -8, 70, -31, -52, 21, 17, -74, 45, -86, -76, -36, -30, -85, 38, 92, 72, 1, -54, 20, 90, -84, -7, 36, 46, -10, 20, 93, 71, 17, -86, 41, -36, 54, 79, -27, -14, -61, 41, 69, 7, -23, 48, -47, 31, 12, 97, 70, -88, 22, -42, -5, -47, 90, 56, 64, 109, -38, -76, -49, 73, -9, 102, -77, -72, -11, -90, 8, -71, 83, -100, 84, -24, 7, 71, -76, 40, -20, -54, -25, 65, -33, -7, -20, -98, -28, 18, -73, -38, -44, 112, -25, 20, -67, -34, 45, -9, 48, 75, -77, -89, -22, 93, 12, -83, 78, -22, 93, 23, -58, 69, 34, 98, -59, -25, 104, 18, 32, 60, 84, -11, -60, -3, -13, 27, 3, 11, 18, -19, -62, -81, 7, 11, 26, -34, 57, 34, -14, 19, 17, 42, -83, -10, -37, 90, 11, 21, 16, -63, -19, -51, 80, 105, 60, -88, -79, -38, -40, -72, 32, 35, 101, 77, -41, -56, -52, -39, 19, 4, 79, 88, 50, -8, 67, -74, -15, 53, 62, 75, 69, -27, -86, -11, -39, -60, -46, 40, 62, 12, -93, -31, -15, 3, 89, -98, -38, -100, 31, 55, -30, -71, -95, -6, -20, 67, -10, -97, -19, 112, 41, -31, -112, -27, 74, 29, 40, 102, 69, -4, -68, 91, 106, 16, -23, -9, -45, 22, -82, 39, -49, 57, 80, 38, -16, 8, -89, 91, 70, 13, -83, 38, -54, -17, -34, 17, -60, -43, 0, -79, -83, 46, 94, -34, -79, 15, 24, -92, 32, -63, 14, -59, -87, -69, 19, 59, -63, 80, -35, -63, -55, -97, -75, 32, 40, -67, -73, 28, 20, -62, -79, -10, 38, -56, 92, -8, 56, 45, -10, 32, -76, 70, -25, 94, -87, -1, -1, 17, -72, 81, -27, -56, -65, -45, 60, -28, 79, 67, -58, -9, -98, -53, -75, -77, -23, 51, -30, -81, 95, -90, 83, -93, -98, 76, -80, -54, -75, -93, 38, 90, -5, 96, 74, -22, 90, -6, -61, -41, 54, 6, 70, -75, 2, -56, -85, -23, 41, -43, 34, 5, 78, 85, -4, -16, -37, -84, 8, 61, 79, -119, 46, -17, -97, -104, -50, -43, -95, -70, -86, 28, 36, -97, 2, -10, -33, 64, 11, 8, 75, 30, -17, 45, 84, -89, -72, -98, -62, 30, 58, -57, -38, 31, 58, 82, -107, -13, 30, 22, 30, 63, -23, -111, -29, -46, -105, 46, -95, -70, -10, 3, -86, -28, -9, -56, -10, -69, 5, -104, 4, -23, -24, 102, 11, -60, -71, 55, -91, -56, 55, 81, -98, 64, -11, 52, -71, 100, 42, -35, -52, -72, -42, 25, -15, 69, 60, 26, -29, 29, -61, 62, -68, -1, 19, -42, 11, 80, -84, 75, -67, -79, 40, 2, 17, -41, 99, 0, -17, 75, -93, 2, -14, 62, 23, 39, -78, -63, -1, -47, 61, -87, -11, -107, -24, -11, 53, 71, -75, -24, 71, 73, 44, 71, -77, -84, -110, -78, -70, -8, 66, 66, -103, 91, -34, 37, 86, -46, -79, -93, 53, -5, -53, -1, -9, -78, 37, -23, -90, -73, 4, -28, -72, -32, 0, 68, -25, 70, 46, -88, -56, -86, 17, 76, 29, -24, -93, 34, 85, -41, 24, -78, 2, -74, 92, -54, -26, 18, 69, 41, -61, -89, -82, 18, 22, 37, -41, -90, 41, -19, -42, -5, 106, -115, -102, 0, -1, -36, 37, -5, 49, -43, 12, 101, 46, -37, 76, -2, 40, -32, 4, 77, 70, -57, 43, -73, 99, -77, 72, -5, 66, -56, -68, 47, 87, -15, -94, -80, -40, 84, -91, -58, 8, -37, 14, -57, -95, 49, -28, 56, -15, -60, -74, 2, -18, 70, -105, 5, -51, -57, 10, 71, -95, 62, -40, 25, -58, -54, -68, 88, -50, -50, -35, 85, 18, -92, -63, 68, 29, -14, 49, -30, -4, 58, -10, 76, -59, 11, 41, -13, -77, 70, -60, -80, 70, -88, 96, -27, -5, -83, 30, 54, -72, -25, -9, 72, -24, 4, 86, 33, 24, 58, -50, -94, -25, 2, 96, -28, -40, -40, 35, -117, 1, -29, 72, 31, -86, -98, -32, -38, -82, -46, -75, 82, -96, 1, 23, 72, -85, -45, 14, -30, -36, -5, -88, 55, -105, 58, 41, 99, -98, 67, -74, -38, 39, -92, -54, 13, 45, 67, -70, -72, -22, -39, -100, 15, 85, -49, -91, 69, -7, -66, 64, 61, -15, -31, -96, -63, 85, 47, -53, -62, 59, -82, -17, -42, 70, 38, -60, 43, -4, -31, -13, -34, 4, 64, -12, -27, -29, -7, -30, -19, -46, -89, -45, 66, -79, 49, -22, 23, 49, 6, 63, 15, -70, 32, 3, -40, 25, -42, 68, 77, 80, -97, 64, -91, 3, 98, 3, -48, 0, -60, 62, 18, 71, -14, -51, -10, 84, 21, 8, -45, 70, -72, 96, 24, -14, 80, 80, 72, 90, -68, 62, -60, -49, -28, -97, -84, -21, -54, 80, -41, 13, -6, 17, -23, -52, -33, 31, -35, -29, 52, -2, 53, 104, 33, -40, 79, 89, -36, -60, -62, 16, -69, -95, 43, 49, -36, 58, 59, -86, 55, 21, -10, -64, 12, -63, -91, 35, -79, 39, -49, 91, -90, -7, -4, -96, 31, -27, 27, -4, -63, -1, -38, 101, 24, 30, -59, -35, -91, -79, -1, -18, 60, 7, 33, -62, -4, 75, 28, -14, 52, -55, -31, 76, 74, -80, 9, 47, -70, -56, -89, -8, -37, -75, 74, -84, -62, 12, -16, -19, 58, -94, -56, -96, -25, 48, 34, -23, -63, 26, 32, 64, 73, 62, 75, 44, -54, 101, -80, 11, -15, 43, 11, -38, -38, -74, 39, 101, -38, -31, -19, 57, -69, 61, 0, 35, 72, -74, 1, 47, -90, 40, 67, 7, 16, -96, -97, -57, -1, 80, -44, 54, -23, 37, 17, -11, -92, 14, 56, 4, 79, -40, -59, 79, -49, -46, 86, -27, -49, 85, 50, -101, -88, -54, 104, 63, -86, -93, 93, 90, -20, -4, 18, 86, -119, -60, 69, -47, 36, 67, -91, 16, 62, 41, 3, 64, 81, -13, -60, 4, -3, 56, -91, 61, 58, 85, -66, -72, -68, 87, -45, 58, 48, -3, -105, 24, 23, 8, 35, 85, -96, -106, -71, -14, 50, 89, 23, -23, -96, 41, 1, -67, -93, 57, -103, 3, 39, 88, 99, 25, 58, -22, 65, -29, -21, -54, -53, 38, -66, 26, -30, 3, -96, 109, -30, 50, 39, -90, 102, -92, 4, -33, -22, 67, -38, 66, -26, -57, 93, -24, -58, -56, 36, 28, -4, 41, 79, 90, -35, -27, 24, -6, 59, 27, 81, -70, 23, -97, -42, -101, 41, -63, -66, -49, -16, -59, -64, -91, -55, 52, 16, -73, -73, 23, 53, 45, -27, -3, -62, -35, -105, 41, 1, -80, -70, -83, -11, -20, 18, 9, -9, -75, 14, -67, 8, -7, -36, 60, -18, -39, -72, 39, -44, 48, 25, 4, 49, -80, 20, 94, 7, -80, 83, 65, -58, 105, 19, -21, 33, -7, 13, -16, -91, -66, -79, -6, 57, 80, -84, -40, 68, -53, 99, 47, 56, 48, 53, -43, 17, -67, 4, 99, -32, 80, 91, 25, -89, 57, 69, -21, 49, -38, -12, 27, 31, 70, 82, 23, -98, -36, -2, -32, 95, 72, -65, -48, -59, -21, -21, -7, -89, 77, -68, 12, -10, -1, 19, -107, -108, -16, 74, 66, -73, 56, -57, -94, 51, 85, -55, 40, -92, -83, -15, 1, 21, -44, -78, -98, -88, -81, 28, -42, -14, 24, 22, -28, 91, 32, 0, -57, 13, 86, 14, -69, 41, 36, 63, -93, 70, -75, -64, 13, -28, 79, -48, -61, -111, -76, -20, 78, -51, 31, 80, 31, -45, -47, -22, 28, -17, -39, 82, -30, -56, 70, -9, -50, 49, -49, -69, -37, -27, -19, 79, -45, -49, 19, 48, 99, 70, 50, 7, -55, -19, -73, 37, -27, -46, -89, 56, 23, -95, -45, -87, -81, -10, 113, 18, -56, 57, 55, 58, 7, 13, -49, -92, -16, -97, 16, -55, 84, -1, 50, 84, 2, -84, 16, 69, -26, -94, 31, -70, -47, 78, 61, 76, -82, 69, -44, -41, 35, 98, -64, -31, -19, -96, 45, -58, 2, -61, -51, -10, -11, 73, -35, -67, 28, 96, 29, -84, -82, 5, 60, 77, -98, 91, 35, -35, -79, 71, -64, -53, 5, 50, 86, 72, -82, -56, 46, -70, 25, 73, -24, -8, 2, -46, 3, 64, -76, -86, -9, -24, 20, -96, -81, 61, -77, 90, 98, 45, 80, -27, 92, -35, -36, -82, -29, -98, 56, -107, -40, 41, -69, 4, -98, -96, 47, -95, 92, 19, -28, -68, 81, 7, 8, -41, 26, 9, 62, 33, 25, -67, -29, -35, 5, -49, 31, -11, 45, 93, 78, -64, 90, -89, -26, -11, -76, -89, -69, 54, -55, 6, -91, -95, -43, 10, 102, 74, 34, -79, 52, 31, -47, -54, 20, 59, 29, -4, 5, 47, -83, 68, -69, -77, 37, 37, -37, -66, -41, -46, 2, -32, -39, 18, -114, -85, 61, 46, 43, 20, 89, 54, -89, 37, 7, 20, -87, -25, -47, -35, 60, -27, -39, -100, 102, 14, 83, -42, -21, 43, 67, -73, 43, -91, -3, -84, -41, -24, 79, 16, -80, -53, 4, -92, 81, -91, -23, 58, -79, 47, 99, -12, 51, 40, -75, 12, -31, -96, 36, 36, -63, -70, -17, -98, 75, 5, -13, -34, -47, 48, -49, -106, -58, -30, -91, 18, 24, 3, 1, 23, 71, -51, 20, -23, 85, 28, -21, 54, 1, 104, 106, 82, -93, 47, 7, 19, -28, 83, 86, -11, 24, -29, -73, -19, 62, -5, 39, -83, 49, 93, 72, -64, 4, -99, -47, 7, -47, 19, 25, 55, 92, -50, -67, 104, -27, 85, -15, 89, 57, 17, 46, -91, -20, 60, -84, 23, -101, 22, -61, 20, -20, -32, 87, 34, -42, -45, -77, -71, -64, -76, 11, -78, -69, -93, -98, 7, -6, 10, 68, -5, -85, -81, -63, 62, -71, -43, 39, -34, 51, -61, -81, 78, 40, 1, 74, -73, 79, -101, -81, 4, 50, 70, 32, 79, -39, -69, 68, 43, -83, 62, 4, -88, -80, -49, 101, 76, 29, -62, 57, 2, 30, 7, 60, 1, 88, 50, -57, 102, -37, -90, 28, 81, -28, -17, -40, 62, -28, 83, -64, 94, -33, 45, 16, -48, 26, -33, 69, -73, 9, -76, 24, 44, 103, -75, -51, -77, -22, -48, -31, 29, -18, -71, 45, -92, 61, -60, 19, 108, 76, 84, -90, -74, 80, -73, 19, 5, 84, 62, 69, -88, 65, 45, -47, -39, 25, 55, -95, -84, -35, 53, 66, -12, -91, -42, -4, 14, -7, -33, -34, -36, -69, -10, 7, 74, 74, 86, 58, -49, 25, -20, -49, -90, -66, -42, 72, -68, 39, 37, -42, 86, -74, 78, 27, -96, 80, 65, -85, -77, -39, 54, 19, -18, -68, -57, -70, -49, -68, -41, 38, -74, 36, -45, -51, -24, -111, 3, -41, 13, -98, 80, -15, -2, -56, -94, 26, 81, -89, -78, -82, -41, -7, -80, -70, -77, 55, 50, -70, -68, 112, -71, -51, -99, 41, -31, 78, 79, 92, 83, -83, 98, 84, -36, 94, -95, 16, 67, -37, -12, -69, -75, 84, -10, -64, -71, 113, -71, -29, -4, -72, -56, -39, -7, -25, 30, -14, -52, 28, 98, 47, -3, 59, 23, -68, -96, 15, -53, 49, 87, -39, -59, 73, -59, 68, -64, -55, 98, 43, 27, 79, -45, 16, 86, -77, -18, -50, -5, 61, 85, -105, 1, 39, -54, 55, 50, 17, 30, -71, 56, 82, 58, 55, 55, 53, -115, -79, -3, -64, 77, 9, 40, 15, -81, -36, 78, -5, -35, -80, 2, -46, 53, -17, -95, 54, 77, -92, -70, 81, 69, -75, -12, 92, -97, 10, 67, -41, 32, -9, 22, 108, -32, -22, -10, -77, 40, -66, -64, 52, 35, -73, 36, -63, 56, -73, -47, 8, 19, 30, 80, 51, -37, -32, -41, 89, 52, 81, 60, 20, 15, 102, 84, -11, -65, 60, 40, 87, -64, -63, -61, 87, -44, -20, -73, 69, -74, 11, 47, 8, -92, -17, -13, 61, -51, -79, -1, 44, 17, -2, 26, 78, -108, -60, 57, 26, -35, -79, -77, -14, 66, -76, -117, 26, -60, 78, 14, 62, 90, 10, -93, 84, -59, 39, 42, 16, 16, -20, -92, -10, -83, 76, -62, -28, -2, 63, -53, -73, -56, -7, -19, -5, -85, -68, -80, 72, -75, -41, 3, 97, 10, -90, 1, 90, -64, 94, -86, 70, -24, 30, -24, -16, 52, 41, -96, 75, 4, 28, 23, 14, 83, 63, -1, 51, 97, 53, -2, 68, 98, 15, 48, -82, 17, 31, 36, -38, 39, 95, 15, 6, -6, 26, -67, -25, 88, -72, 47, -60, 69, -42, -6, -74, 9, 90, 28, 61, 43, 36, -30, 94, -94, 90, 50, 40, -82, 49, 40, 81, 19, 78, 84, -5, 103, -74, 31, 11, 30, 60, -79, 33, -36, 74, -94, 68, 15, 43, 29, 42, -59, -33, -32, 22, 4, -86, 79, -91, -102, -73, 75, -83, 46, -87, -15, 25, 77, -11, 78, -31, -87, -74, 43, -112, -51, -52, 98, -82, -67, 45, 41, 8, -56, -28, 69, 34, -44, -92, -78, 8, -39, 26, -104, 4, -92, 56, -89, -5, -6, 51, 13, -50, 28, 34, -85, 27, 40, 91, -71, -7, -4, 19, 54, 15, -8, 44, -66, 10, -17, -9, 76, 36, 15, 73, -39, -95, 73, -58, -16, -67, 79, -26, -53, 62, -80, 116, 34, -1, -55, 93, 28, 86, 40, -62, -21, -20, -55, 24, 56, 78, -74, -45, -95, 42, -111, 5, 114, -63, -2, 58, 92, -100, 20, -89, 69, -84, -39, 27, 74, 52, 64, 20, -91, -89, -82, 75, 8, -32, 55, -80, 52, -64, 42, 66, 22, 93, 16, 85, -10, -80, 33, 26, 77, 18, -107, -9, -81, 12, -76, -58, -72, 85, -58, 6, 8, -29, 90, 3, 68, 15, 76, -64, 63, -76, -41, 23, 22, 26, 52, -83, -52, -28, 35, 72, -86, 61, -99, -3, 83, 54, 99, -86, -72, -10, 75, 4, -91, 12, 61, -85, 91, 88, 15, -53, -3, -94, 15, 56, 74, 32, -120, -7, -18, -72, -35, 75, -35, -80, 26, -45, 50, -44, -98, -60, -75, 54, 15, 15, -7, 71, -18, 40, 33, -28, 83, -78, -34, 97, -29, -11, -71, -64, -96, -35, -31, 41, -57, -32, 104, -13, -37, 4, -102, 34, 45, -60, 33, 47, -80, -58, 55, 68, 32, -33, -78, 99, 33, 44, 76, -48, -29, -44, -20, -84, -46, -23, 93, 12, -46, -20, -52, -16, 52, -53, 42, 44, -87, 97, 27, 64, -105, 27, 4, 29, 11, -42, -79, 57, 4, 40, -46, 17, 38, 98, 93, -62, -45, -43, 55, -16, 87, -22, 25, 31, 58, 7, 96, 53, 9, 89, -72, 12, 43, 107, 67, 55, -89, -90, -81, 91, -77, -13, -9, -73, 20, -29, -91, 101, -91, -15, 24, -63, -35, -73, -21, 17, -14, 50, -17, -48, -1, 70, 6, 81, -20, -13, -95, 62, -88, -35, 90, -10, 42, -85, -18, 38, 95, -52, -31, 59, -3, 12, 47, 50, 94, 16, 8, 87, 25, -53, 47, 38, -57, -33, 46, -50, 43, 80, 80, -67, 72, -36, -72, -58, 21, 35, 82, 92, -58, 12, 35, 92, 80, 80, 53, 31, 32, -95, 11, 82, 105, -55, 71, 78, -50, -81, 23, 25, 38, -19, 48, 27, 21, 31, -8, -37, 20, -78, -25, 43, -83, 67, -83, 13, -27, 73, -70, 6, -88, -27, -3, -91, 105, 83, -7, -95, 80, -62, 18, -44, -10, 56, -49, -53, -6, 46, -53, -74, -69, -52, 16, -27, -67, 72, -62, 11, 108, 51, 8, 5, -11, -78, -43, -49, 16, 5, 4, 34, 45, -68, 11, 9, 68, -18, -20, -21, 6, 11, -72, -42, -56, -83, -69, 5, -48, 45, 61, -7, 5, -93, -81, -29, -68, -12, 50, -20, -82, -76, 64, -24, -6, 43, 34, -19, 63, -51, 81, 0, 71, -29, -88, 50, 46, -95, -15, 78, -32, 68, 27, -61, -23, 102, 3, -57, -96, 65, 84, -58, -2, -80, -71, 44, 33, -72, -85, 55, 8, -51, -98, -33, 102, 85, 93, 80, 31, 1, -6, -35, -76, -57, -70, 34, 2, -10, -5, -109, 7, -8, 37, -78, -29, 1, 52, -2, 63, -50, -50, -70, 47, 36, -3, -45, -67, -38, -61, 71, 31, -52, 45, 73, -29, -97, 23, 37, -101, 64, 49, -58, -22, -26, -65, -99, -31, 61, 38, -80, 60, 22, 40, -30, 19, 32, 69, 10, 31, -54, -30, -44, -61, 15, 43, 16, 52, 72, 15, -67, 61, -45, 81, 3, 46, 70, -104, 42, -70, 85, -48, 15, 44, 20, 48, -51, 53, 38, 37, 72, -33, 1, 28, 0, 56, 25, 34, 96, -77, -3, 61, -70, 27, -29, 56, -92, -66, -71, -100, 116, -30, 49, 38, 32, 91, 3, 15, 27, 60, 98, 35, -38, 76, -80, 91, 3, 87, -90, -29, -5, 74, -12, 90, -13, -45, -56, 76, 95, -16, 53, -28, 13, 85, -9, -103, -16, 19, 96, 26, -90, 56, -74, 84, -88, -42, 45, 73, 42, 65, 53, 78, 35, -31, -7, -62, 57, 92, 90, -78, 92, 85, 21, 61, 82, -12, -77, -4, 80, -71, 100, -68, 80, -86, 90, 14, 32, -70, -38, -25, -99, 33, -96, -3, -83, 53, -69, 43, -95, 68, -61, -44, 4, 40, -93, 36, -81, -24, 14, -31, 44, 17, 86, 10, -88, 60, 57, -24, 88, 76, -59, 48, -88, 91, 8, -27, 34, -35, -14, -78, -14, 4, -17, 58, 47, 84, -24, 64, 55, 66, 81, 45, 28, -76, -96, 19, 76, -61, -4, -69, -82, -91, -58, -49, -84, 22, -49, 33, -38, -65, -38, 88, -20, 30, 63, -35, 7, -90, -71, 55, -82, -4, 96, -51, -52, -54, 71, -48, 40, -42, -28, 42, 52, -4, -67, -75, 58, 95, 59, 25, 46, 44, 76, 77, -82, -89, 6, 76, 90, 10, 0, 8, 28, 1, 38, -89, -92, 87, -58, -65, 84, 18, -82, 31, -69, 64, -76, -19, 39, -90, -25, 23, -32, 84, 10, -12, -8, -25, 73, 85, 32, -19, 10, -43, 82, -71, 93, -27, 49, -49, -68, -36, -44, -21, 69, 26, 7, 12, -9, 59, 100, -92, -64, -54, 76, 47, -22, 83, -83, -27, -8, 31, -69, 28, -2, -41, -85, 34, 15, -40, 66, 60, -44, 27, 63, 7, -88, 55, -38, -30, 8, 85, 76, -85, 48, -29, 7, -85, 82, 37, -80, 60, -57, 75, -37, -19, 50, -57, -56, 3, 96, -48, 87, 49, -17, -71, -41, -81, -29, 96, 54, 106, -19, -34, 95, -54, 49, -83, 68, -95, 21, 49, 75, -65, -23, -44, 57, 90, -12, -54, 82, 58, -21, 72, -91, -19, 94, 42, 14, 77, 96, -2, 46, -23, 85, -7, -57, 64, -7, -100, 90, 79, 61, 40, 11, 110, 102, -64, 8, -28, -30, 86, -85, 94, 5, 53, -28, -32, -44, 90, -90, -59, 30, 35, 81, 51, 42, -60, 4, -43, -73, -9, 23, 23, 56, 48, -39, -27, -66, -4, -75, -92, -34, 55, 8, -15, -69, 103, 37, -5, -40, -10, 27, 45, -90, 84, 31, 26, -17, -8, 87, -2, -12, -65, -53, 11, -43, 97, -67, -72, 47, 87, 34, 45, 79, 77, 4, 53, -42, -1, 96, 68, -82, -4, 70, -20, 86, -87, 85, -69, -19, -43, 85, -66, -89, 2, 7, 87, -98, -25, -56, -53, -72, -76, -100, -53, -33, 41, -58, 24, 81, 87, -96, 66, 20, -72, 45, 45, 82, -30, 4, 77, -62, -29, 30, -31, -90, 70, -81, -17, -94, -25, -35, 20, -20, 10, -57, 97, -6, -102, -10, -23, 10, 2, 51, 48, 26, -5, 12, -77, 43, -19, -69, 63, -57, 77, -84, -35, 17, -7, 97, 29, -51, -18, 69, -9, 6, -21, -70, -85, 49, 82, -1, 0, 1, 8, 53, -72, -78, -71, 59, -47, 49, -52, -92, 112, -83, 42, -61, -63, -58, 75, -66, 26, 73, 59, 75, 27, 34, -66, 25, 11, 88, -13, 41, -56, -80, 75, -61, 29, -6, 92, 79, -78, -36, -35, 13, -81, 109, 27, 83, -36, -84, -35, 20, 47, 51, 87, 12, 32, 17, -9, -46, 78, 10, -83, 21, 84, -67, 96, 90, -81, 64, 13, -11, 48, 14, -96, -51, 22, -46, -47, 55, 77, -104, -42, -54, -54, -62, -18, -25, 6, 14, -35, 61, 40, -77, -22, 105, -27, 30, 31, -1, 1, -90, -47, -24, -59, 100, 19, -55, 15, -48, 84, 0, 38, 80, -57, -96, 52, 5, 44, -43, 48, -12, 15, 23, -30, -22, 76, 50, 77, 34, -28, 64, 29, 84, 17, -42, 37, -2, -19, 114, 46, 80, 71, 12, 98, -51, 100, -38, -11, 17, 15, -57, 15, 28, 100, -37, 40, -27, 35, 86, -29, 18, -6, -59, -6, 92, 29, 86, 76, 97, -34, -88, -80, -41, 0, 51, -39, -51, -43, -71, 55, 61, -81, 30, -8, -13, -77, 43, 18, 42, 36, 21, -80, -8, -68, -61, -3, 44, -6, 86, -40, -55, -13, -45, -89, -2, 60, 8, 28, -45, 9, -2, -10, 58, 62, -74, 69, 73, 27, -34, -50, 71, -60, -21, 77, 96, -66, -97, -97, 4, -106, 75, 36, -50, 92, 35, 21, -81, -94, -82, 96, -7, -59, 15, 27, -94, 97, -85, 1, -86, -65, 29, -94, -41, -99, 27, -73, -52, -79, -54, -86, 25, 16, 35, -10, -26, -6, 18, -82, -31, -14, -60, 18, -30, -52, 57, 91, -57, -93, -25, 9, 14, 4, -15, 96, 117, -59, 62, 37, -39, -73, 45, -87, -51, -74, -58, 10, 66, 60, 22, -13, -49, 105, 12, -23, -33, -91, -8, 61, 61, 37, -36, 24, 40, -64, -17, -84, -46, -52, -8, 97, -53, 101, -31, 91, 24, -37, 0, 81, -103, 12, 75, 5, -16, 8, 45, -4, 72, 74, 33, 85, -37, -20, 3, 114, 87, 76, 63, -60, 4, 57, -69, -36, -92, 17, 82, 38, 61, 86, -83, 60, 33, 89, 97, 9, -60, 35, 60, 56, -49, 67, 29, -61, -89, 90, 100, -29, -39, -10, 89, 82, 91, 50, -21, 112, 76, -89, -83, 33, 13, -31, -44, 9, -78, -85, -51, -73, 25, -35, -22, 79, 121, 83, -24, -25, 90, -95, -31, -50, -43, -82, -52, -50, -58, 51, 24, 111, 23, 3, 5, 62, 72, 34, 64, 82, -16, 14, 4, -78, -75, 35, 78, -99, -51, -68, 28, -27, 54, -94, -6, 11, 58, 55, 4, 62, -35, 36, 51, -65, -28, 13, 24, 68, 51, -3, -35, 1, 27, -18, -25, 46, 45, -16, 69, -69, 28, -15, 13, 33, -34, 77, 5, -11, 57, 38, -76, -27, -38, -35, 10, 71, 73, 0, 2, 36, -16, 61, -104, 71, -53, -5, 69, -13, 93, -31, 44, 60, 9, 81, 101, -62, 84, 66, 54, 47, 96, 83, -26, -26, -56, -8, -33, 15, -76, -87, -97, 68, 80, 58, 81, 7, 17, 18, -5, 73, -54, -7, -56, -30, -121, 76, 58, 84, -86, -9, -84, 18, -56, -27, 91, 30, -38, -24, 40, 49, 58, -37, 63, 37, -88, -84, -95, -7, 38, 15, 74, -50, 25, -33, 105, 88, -42, -77, 83, 7, 82, -21, 37, -110, 57, 83, 73, -37, -88, 49, 46, 38, -49, 7, -57, 19, 96, -29, 38, -40, -14, -54, -62, 38, -52, -7, 4, 82, 2, -76, -52, 29, 46, 79, -69, 53, 78, 75, -28, -40, -25, -17, -28, -87, 2, 36, -55, -57, 73, 82, -45, 14, -39, -1, 4, 59, 82, -61, 83, 56, 71, 96, -44, 55, 22, 86, 45, -89, 28, -30, 70, 52, 90, -14, 71, 72, 98, 59, 82, 46, -111, -34, -6, -40, 12, 38, 82, 41, 113, -119, -55, 76, -60, -93, -24, 34, -52, -11, 96, 74, 82, 74, -17, -58, -70, 110, 13, -44, -10, 103, -44, -94, -5, -18, 85, -65, 47, 69, 69, -20, -13, -1, 47, 14, -95, -82, 10, -90, -67, -33, 5, -51, 67, 3, 15, 80, 40, 12, -7, -87, 92, 88, -77, 53, -40, -19, -76, 7, -4, 47, -11, -53, -76, -20, 32, -47, 67, 47, 33, 36, 47, 75, -52, -76, 60, 89, -87, -14, -28, -1, 14, 39, -54, -6, -63, -58, -87, 103, -18, -49, 70, -69, 41, -46, 104, 75, 62, 66, -75, -37, 51, 42, 23, -88, 30, 65, -16, 61, 2, 95, 36, -26, 63, 57, 20, -64, -7, -47, -57, -79, 10, 33, 117, -61, -19, 78, 50, 46, 9, 75, 67, 2, -87, 35, 47, 61, 29, 1, -32, 19, -58, -39, 2, 24, 92, -58, -9, 43, -29, -8, -22, 20, -14, 2, 21, 95, 85, 67, -47, 82, 67, -26, 95, -90, -124, 92, -59, -71, -17, -15, 59, -13, 73, -14, -35, -43, -38, 78, 67, -37, 25, -35, -80, -62, -12, -77, 70, 67, 34, -47, -71, 9, -26, -57, -40, 24, -17, -28, 7, -96, -6, 55, 110, -17, 15, -45, 4, -33, 102, -66, 20, 57, -20, -22, -63, 10, -25, 18, -59, 96, 71, -41, 39, -8, -16, -65, -77, 1, -65, -7, 72, -19, -70, -65, 75, 40, 46, 0, -22, 0, 61, 6, -55, 24, -26, -72, 71, -95, 52, -37, -57, -52, -86, 63, -33, -37, 101, 64, -76, 67, -88, 43, -93, -30, 76, 76, 25, -70, -55, -83, 71, 63, 20, 38, 98, 41, 14, -55, -72, 82, -39, -10, 109, -98, 70, 48, 27, 43, -35, -50, 92, -43, -47, 82, 16, 12, 95, 97, 31, 67, 44, -51, 75, 64, 65, -51, -72, -106, 3, -87, -65, 26, 75, 18, 59, 37, -30, 99, -84, 16, -54, -92, -64, 5, 98, 62, -17, 84, -78, -65, 58, -87, -61, -77, -39, -15, 47, -109, -47, 34, 21, 41, 71, -34, -55, 42, 104, 31, -71, 43, 35, 81, -24, -14, 95, 28, 34, -42, -34, 10, -92, -97, -54, 101, -104, 85, 2, 86, 48, -66, 35, 72, -34, -37, -81, 71, 42, 62, -81, -94, 38, 15, -71, 50, -63, 76, -88, -67, -17, 35, 68, 18, -82, -56, 59, -56, -73, -84, -82, -43, 65, -93, -33, -61, 65, 23, 37, -64, -12, 37, -21, 63, 58, 93, 57, 69, -16, 48, 7, -50, -18, 62, 61, 95, 71, 53, 11, -42, 25, 74, 38, 16, 42, -55, -25, -87, 27, -91, 82, 113, -32, 59, 66, -30, -64, -62, 24, -5, -11, -44, -14, 91, -43, 54, 62, 98, 24, 76, 62, -56, -34, -90, -55, 30, 80, -27, -64, 58, 60, -66, 15, 7, 12, 46, -37, 95, 85, 17, -48, -22, 68, -16, -61, -56, 94, -86, 98, -46, 1, 39, 45, 24, 74, 81, -79, 12, 2, -85, -88, 79, 95, 94, -50, 76, -13, -95, 22, -2, -80, 20, -51, -79, 40, 17, -94, -37, -90, 77, 14, 11, 25, 42, 51, -74, -65, 48, -89, -5, -34, -78, -64, -29, -24, -43, -89, -53, -90, 67, 86, 17, -87, -11, -26, 14, -74, 69, 16, -20, 64, -49, 82, -37, 14, 66, 79, -108, -113, -86, 74, -84, 18, 41, 88, 39, -25, 32, -99, 47, 4, 0, -62, 94, 14, -46, -31, -60, 2, 85, 6, 75, 34, 62, 46, -61, 22, -38, -26, 40, -77, 57, -19, -8, 51, -67, 31, 78, -68, 12, -46, -34, -42, -106, -58, -66, -100, 114, -32, 44, -107, 97, 82, 42, 30, 51, -8, -22, 3, 66, -4, -81, 42, -21, -2, -80, 2, -47, -57, -15, -48, -39, 55, 85, -38, 5, -19, -90, -32, -87, -85, 79, -54, -23, 55, -11, 89, 83, 85, 36, -89, -75, -60, -63, 29, 21, 62, 15, -60, -108, 94, 27, -53, 4, 58, 19, 74, -99, 66, -72, -76, 83, 52, -107, 86, 9, 77, 46, 39, -5, -19, -78, -43, -42, 46, -88, -83, 67, 10, 58, -87, -40, 74, 74, 53, -77, 11, 107, -9, -89, -61, -88, 56, -53, -37, 94, -41, 59, -61, 91, -98, -23, -63, -46, 32, 37, 63, -3, 45, 35, -73, 55, -9, -22, 20, -7, 11, 64, 98, 13, -75, 63, -68, -78, -36, 60, -42, -55, 73, 47, -30, -76, -18, -32, 48, -82, -43, -44, 15, -27, 24, -82, 44, 21, 82, -44, -38, -108, -60, 97, 81, 32, -61, -33, -86, 60, -3, -35, -80, 32, -52, -72, 32, 9, 91, -96, 3, 2, 64, 3, -54, -22, 63, 83, -47, -111, 27, -64, -82, -75, 13, 3, 48, 32, 32, -7, 81, 51, 26, -88, -95, 43, 9, -19, -108, 34, 45, 96, -21, -48, -99, -1, 76, -20, 4, 86, 64, 25, 78, 64, -24, 93, -81, -98, 81, 38, -105, -25, 37, 49, 48, -12, -88, -10, 52, 26, -100, 106, -95, -88, 5, -33, 46, -70, 40, 39, -23, -24, -12, -24, -8, -18, -55, 54, 33, -79, 80, 68, 31, 52, -57, -63, 67, -56, -64, 23, 40, 77, 19, 52, -3, 91, -84, 50, 16, 89, -108, -103, 72, -23, -4, -17, -34, 63, -63, 43, -58, 32, 82, 36, -55, 28, 86, 22, 15, -24, -69, 75, -48, -1, 54, 89, 25, 21, 54, 41, 87, -95, 64, -71, 74, 22, -88, -4, -32, -58, 13, -1, -5, 32, 81, 112, 4, -49, -64, 19, 46, -21, 34, -16, -37, 21, 20, -89, 7, 56, -85, 93, 15, 60, 29, -36, 72, -62, -28, -68, -11, -104, -14, -34, 13, -96, 12, 68, -51, 75, 20, -88, 65, -57, -12, 77, 7, 88, 101, -77, 51, -24, 85, -91, 54, 8, 109, -19, -39, 77, 77, 66, 62, 16, 53, 61, 46, 39, -22, 41, 57, 102, -94, -59, 40, 78, -45, 33, 96, 66, 104, 27, 65, 44, -31, -26, -21, -52, 63, 87, -13, 45, 88, 47, -34, -5, 72, 60, -29, 18, 64, -20, 74, -74, -66, -25, -91, 92, 71, -38, 36, -83, -98, 52, -12, -53, -41, -91, -76, -65, 23, 3, -64, -81, 93, -88, -16, 46, 47, 8, 34, 4, 8, -80, -51, -39, -60, 75, -48, 80, 31, -55, 66, 104, 87, 15, -95, -19, -69, -83, 107, 75, 75, 99, 68, 63, -8, -22, -54, -63, -51, -43, -81, -88, 54, 14, 16, 67, 18, 69, -98, -43, 80, -1, -12, 53, -5, -19, 21, 33, -25, -74, -23, -21, 54, -78, -56, 42, 3, -54, 45, -71, 50, 16, -6, 94, -2, 7, -15, -34, 84, 78, 82, -55, 27, -20, 5, -95, -24, -89, -19, -19, -94, 88, 16, 98, -15, -31, 77, 27, 89, 28, -87, -27, -50, 99, -45, 2, -61, -69, -21, 78, -18, 26, -12, -39, 99, 56, -48, 66, 24, 87, -52, -19, 35, -20, 104, 102, 1, -71, 88, -70, 75, -98, 48, 102, -78, -72, -11, -70, 98, -40, -45, -3, 96, 50, 63, 46, 33, 105, 17, 54, 92, 5, 83, 88, -72, -89, -8, -62, 90, 85, -77, -20, 5, -11, 25, 57, 37, 10, 32, -89, 116, 76, 21, -59, -54, -80, -20, 35, -18, -76, -11, -85, 3, 61, 33, -18, 60, -49, -78, 58, -84, 58, 7, -65, 42, -65, 30, -52, -84, 61, -61, 39, 32, -46, -71, -60, 94, 28, 94, -47, 33, 55, 48, 74, -64, 44, -91, 73, -87, 69, 100, -34, 69, 16, 0, -11, -92, 43, -63, 96, 58, -68, -27, -17, -47, -24, -84, 22, 48, 95, -60, 54, -7, 56, 51, 0, -46, -29, 36, 44, -40, 66, -3, 56, 42, -38, 31, -66, 20, 54, -36, -21, 14, 18, 70, 36, 59, -81, 90, -44, 75, -43, -72, 18, -77, -92, 68, -36, -56, -44, -51, 29, -10, -57, 39, -62, -82, -54, -62, 75, 89, 121, 24, 27, -73, -39, 92, 75, 67, -12, 94, -67, -76, -71, -24, -42, 71, -57, 40, 24, -21, 30, 95, -75, 12, 13, 29, 54, -40, -6, -41, -60, 93, 47, -13, 52, 99, -42, -5, 9, -6, -87, 13, -54, 51, 12, -37, -42, 5, 66, -43, -69, -8, -88, 27, 1, 82, -48, 67, -1, -100, -41, 7, 62, 54, 94, -22, -85, -54, -43, 92, 70, 16, 108, -39, 32, 16, 57, 100, 66, -45, 82, -5, 15, 31, -24, 72, 74, 30, -75, 70, 96, 54, -35, 41, 60, 52, 74, -18, -56, 41, 73, 85, 91, 97, 51, -26, -31, 36, -3, -77, -75, 67, 12, -45, -15, 56, -52, 57, -80, 28, 60, 12, 63, 0, -65, -15, 22, 68, 29, -95, -46, -24, 54, 56, 47, 44, 70, -28, -5, -105, -3, 5, -15, -49, -63, -105, 80, -5, -40, -22, -62, 74, -91, 73, -17, -70, 46, -23, -75, 80, 20, 20, -12, 86, 18, -27, 76, 5, -91, -45, -86, -82, 16, -23, 49, 47, -86, 41, -68, -43, 29, -67, -15, -67, 5, -58, -63, 54, -17, 76, 97, 50, -2, -96, -56, -56, -54, 27, -66, 9, -5, 91, 53, 67, 2, -34, 50, 69, 9, 70, 82, -4, -38, -19, -41, -91, -28, 78, 54, -36, 77, 30, -54, 98, -45, 42, 45, 42, -37, -31, -35, -75, -83, 86, -62, 88, 89, -75, 82, 97, -82, -46, 44, 55, 84, -12, 78, -71, -23, -36, -19, -84, -78, -57, 35, -22, 80, 12, -50, 86, 66, 75, 54, 14, -36, 79, 16, -107, -81, -6, 78, 68, -56, 81, 73, -83, -42, 27, -70, -22, 49, 54, 26, -55, 5, 6, 63, 79, 0, -33, 4, -92, 40, 17, 9, 112, -60, -73, -53, -21, 99, 57, -58, 96, 11, 37, 57, 16, -76, -74, -69, -95, -20, -77, 39, -80, -93, -61, 33, -62, 50, 97, -69, -55, -90, -101, -28, -26, -73, 82, -15, 14, -15, -40, 31, 106, -83, 61, -52, -77, -2, 77, -11, -25, 65, -79, 30, -77, -49, 71, -36, -81, 104, -84, -74, -91, 28, -71, -64, 56, -36, 70, -65, 68, -10, 22, -97, -16, -67, 50, -23, 49, 28, 17, -54, 78, -92, 22, 13, 34, 70, -44, -89, 46, 107, -41, -80, -12, -30, 87, -19, -13, 88, 52, 42, 67, -41, -40, 102, -33, 63, -44, -19, -34, -90, 0, -32, -73, -57, -84, 14, -106, -6, 3, -40, 39, -9, 108, -49, 24, 23, 0, 14, -51, 40, 59, -73, -38, 26, 59, 2, 4, 17, -48, 83, 27, -87, -97, -53, 12, -6, -75, 50, 7, -61, -45, 64, -12, 93, 23, -1, -81, 14, 79, -61, 106, -66, 84, 57, 2, -77, -54, -65, 83, 57, 5, -47, -80, 4, -60, -91, 78, -20, 29, -30, -8, 21, 36, 74, 63, -47, 61, -14, -26, -62, -61, -12, 35, 43, -46, 70, 13, 11, 20, 25, 22, -24, -90, 104, 32, -6, 51, -92, -54, 90, 122, 65, 14, -28, -117, -66, -56, 10, -4, -49, 67, 27, 27, 2, -70, 45, 84, -110, 34, 85, -76, 61, 93, 66, 1, 24, -48, -50, 43, -48, -3, 36, -34, 16, 21, 91, -107, 50, 69, 93, -26, 106, 70, 52, 29, -36, -32, 19, -31, 68, -80, 15, 56, -31, -74, 23, 12, -67, 20, 32, -5, 36, 18, -18, 9, -57, -1, -21, 9, -49, 15, 9, 10, -13, 60, 70, 55, -27, 74, -84, 54, 38, -70, -33, 32, -54, 2, 34, 111, 105, 62, -52, -52, -89, 16, -24, 24, -88, 41, 74, -36, 75, -64, -24, -45, 16, -38, 54, 19, 84, -52, -43, -109, -82, 71, 5, 59, 26, 39, -93, -59, 64, -46, 33, 19, -25, -105, 38, 39, 60, 88, -89, 4, -27, 40, -27, -78, 29, -91, 106, 34, -71, -40, 44, 56, -30, 24, -33, -40, 32, 102, 0, -47, 10, 65, 37, 4, -59, 69, -88, -57, 2, 32, -108, 89, -29, -50, -33, 40, 102, 49, -106, 17, 51, 82, -29, 32, -28, -98, 53, 67, -36, 7, -53, -75, -21, 77, -21, 38, 96, 83, 56, -52, -31, -2, -80, 42, -18, -76, -94, -13, -19, 33, 2, 91, -30, -20, -5, -102, 10, -13, 45, -82, 85, 90, -55, 32, -47, 28, -75, 35, -7, 4, -36, -42, -42, -69, 52, -31, -62, 15, 41, -85, 23, 34, -93, -88, 42, 77, 67, 17, -9, -48, 21, -63, 106, -92, 91, -27, -25, -24, 74, 61, -22, -7, -75, 18, -60, -104, -79, 52, -75, -86, -51, 103, -68, -3, 78, -85, -78, -4, -22, -14, 66, 4, 32, -76, 39, -95, 55, -12, 9, 82, 5, -37, 18, -63, 11, -61, 71, -22, -62, -112, 13, -52, -79, 104, 61, 90, -29, -25, 71, 54, -27, 26, -65, 106, -70, 18, 47, 32, -115, -77, -42, -29, -6, 96, 8, 63, -28, -90, -109, 24, -78, -39, -26, 62, 76, -58, 40, 1, 32, -41, -43, -52, 73, 37, 66, -74, -76, 26, 49, 6, -79, -71, 95, 9, 90, 1, 93, 51, -76, -45, 25, -20, 48, -19, 95, -2, 75, 104, -1, 79, -55, 52, 45, -22, 16, -4, -13, -78, 4, -33, 16, 29, -10, -48, 87, 52, 58, -32, 43, 45, 77, 34, -39, 90, 16, 52, -83, 90, -13, 41, 48, 88, 37, 1, 79, 42, -86, -14, -116, 66, -64, -83, -56, -75, 38, 41, -95, 66, 52, -53, 6, -4, -25, -80, 47, -55, 23, -91, -25, -45, -81, -7, -93, 96, 6, -64, 52, 69, 68, -29, -85, 8, 21, 57, 88, -105, 64, 28, -43, -44, -86, 0, -17, 92, 54, -36, 21, -18, 24, -6, -96, 59, 51, 54, 16, 26, 33, -67, -40, -21, 32, -85, 10, 85, 36, -83, -52, 91, -40, 8, 89, 58, -78, -35, -42, 59, 37, -38, -11, 60, 107, -75, -87, -75, 69, 88, -1, 69, 46, 40, 75, 2, -70, 64, -84, 3, 63, -105, 74, -44, -22, -43, 56, -88, -47, 2, 28, 44, 30, -48, 39, 4, -19, -94, -90, 10, -57, 98, -50, -89, 61, 87, 41, -38, -54, -68, -7, -91, 0, -92, -70, -47, 8, -70, 39, 68, 59, 20, -22, 97, -12, 40, -107, -33, -8, -25, 72, -47, 34, -7, -60, -40, -18, -9, 70, 90, -55, -53, 76, 67, 67, -34, -92, -61, 10, -3, -72, 70, 84, -66, 94, -61, -79, 59, 45, -14, 69, 44, -56, -38, 31, -78, -99, -59, -70, 36, -46, -19, 27, -41, -55, 30, 76, -67, 51, 50, -79, 66, -79, 17, -84, -49, -25, 49, 34, 94, -5, -50, 41, 67, -84, 16, -71, -71, -102, 46, 89, -60, 4, 74, -99, -22, -78, -53, -63, 106, 53, -47, 2, 54, 55, -43, 36, -40, 99, 97, -40, -3, 25, -56, 32, -51, -37, 10, -11, -93, -110, 35, 107, -76, -19, 91, -5, -29, 54, -32, -79, 79, 41, 35, -28, 80, 47, 42, 104, 49, 78, -38, 74, 97, -34, 83, -60, 42, 32, -33, 76, 93, 102, 78, -74, 53, -64, 47, 91, 67, -55, -61, 58, -107, 10, -36, -44, 18, -70, -58, 13, -13, -15, 81, -29, -36, 22, -87, 38, 57, 54, -61, -4, 70, 91, 41, 8, 82, 49, -78, 47, -52, 34, -92, 11, -55, 77, -8, -68, 89, -66, -92, 66, 46, 92, 70, 76, -52, 110, 97, 12, 38, 74, -1, 73, 13, -27, -21, 98, -26, 56, -12, -19, -105, 70, -24, -73, -7, 89, -56, -27, -5, 60, 31, -61, -37, 59, -96, 5, 6, 22, -2, 108, 42, -63, -69, -49, -50, 66, -13, -85, 50, 94, -28, 26, -64, 35, 1, 12, 60, 44, 55, 51, -49, 43, -53, 20, 65, 3, 63, 86, 107, -24, -75, -1, -11, 64, -47, -69, -83, 95, 93, 12, 12, -59, -45, -50, 78, 56, 28, -58, -73, -101, 55, 44, -77, 6, -88, 27, -14, 96, -32, 50, -12, 84, 51, -19, -18, 71, 90, -86, 90, 46, -59, 54, -58, -45, 70, 54, 14, -90, -61, 59, -71, -55, -17, 71, 18, -36, -80, -20, -2, 72, 69, -85, 58, -26, 46, 70, 64, -74, -83, 24, 80, -53, -68, -35, -57, 55, -31, -52, -16, 16, -10, 45, -65, -94, 53, 124, -48, 24, -88, -101, 80, -47, -38, -24, -61, -74, -47, -23, -28, -63, -15, -44, -60, 8, -77, 43, -42, 26, -62, 79, 86, 74, 91, 7, 74, -15, -71, -16, 11, 56, -89, -94, 37, 43, -34, -72, 67, -45, 53, -101, 54, -88, -36, -59, -100, 39, 40, 102, -65, -6, -11, 11, 86, -38, -18, 7, 94, 66, 101, 47, -52, 44, -76, -1, -24, 92, -57, 81, -75, -47, 5, -3, 46, 91, -97, 75, -76, 69, -37, 42, -25, 14, 27, -93, -15, 45, 8, 74, 2, -38, -82, 4, -16, -47, -74, -66, -22, 91, -99, -87, -46, 29, 73, -13, -13, -16, -38, 92, 16, 20, -3, 7, 0, -62, 63, -8, -16, 36, 68, -76, -97, 83, 35, -62, -54, 35, -9, -82, 87, 22, -80, 69, -56, -5, 4, 71, -65, 21, -11, -16, 84, 51, -15, 35, 4, -67, 50, 2, 86, -92, 38, 60, 17, 22, -83, -87, -60, 77, 64, -79, -46, 64, -46, -57, 51, -78, 70, -4, -25, -17, -82, -43, 53, 17, 11, 73, -62, -36, 0, -78, -90, -89, -25, 47, 51, 28, -79, 18, -46, 37, -45, 91, 87, 61, 23, -44, 56, -41, 102, -60, 15, -34, 40, 49, -54, 35, 67, -85, -69, -23, -45, 32, 52, -104, -72, 31, -72, 47, -36, 41, -1, 77, -63, -2, -54, -33, 32, 27, -83, 121, -24, -66, 77, -31, 46, -94, -76, 14, 56, 68, -30, 43, -2, 29, 35, -72, 28, -73, 51, -28, -70, -37, -45, -59, 44, 32, -1, 44, -72, 52, -81, -60, -75, -22, 73, 3, -33, 61, -75, -22, 32, -55, -41, -8, 5, 8, 67, -88, -94, 34, 72, -45, -62, 10, 49, 26, 36, -41, -92, 44, 15, -17, 80, 101, 55, -9, -73, 41, 8, -8, -18, -40, -48, 76, -28, -90, 19, -18, -100, -41, 28, 43, -10, -73, -32, -12, 92, -31, 33, -53, 74, 70, -31, 79, -80, -19, 80, -28, -68, 73, -91, -30, 106, 51, 49, 76, -57, -96, 8, -72, -2, 67, 38, -74, -77, -69, -70, 71, -22, 66, 75, -7, -96, -80, -7, -89, 18, 53, -24, -9, -71, -32, 90, -31, 45, 110, -65, -43, 88, 98, -26, -45, 40, 22, -101, 73, -67, -82, -18, 30, -27, -91, -26, -62, 51, 83, 51, -89, 104, -43, 13, 35, -42, 79, -59, -78, -14, -48, 29, -74, -56, -28, -73, -74, 38, -59, -83, 43, 53, 19, 0, -29, 15, 79, -86, -49, -23, 30, 70, 0, 52, -14, 107, 22, -43, -29, -43, 101, 102, -20, -21, 97, -49, -64, 75, -44, 39, -2, 88, 23, -8, 41, -13, -85, -80, 73, -42, -82, -87, 56, 57, -45, -90, 36, -64, -3, -54, -61, -30, 23, 20, 29, -76, 79, 119, -35, -59, -7, 96, -40, 68, -33, -100, 2, 3, -28, -100, 61, 30, -33, -78, 49, 25, 31, -65, -1, 60, 85, 45, 25, 19, -2, -77, 18, -92, 63, -64, -24, 63, 85, -61, 41, -14, 64, -69, -81, 83, 68, 79, -2, 79, -58, 3, -36, 96, -72, -77, -25, 20, 2, 81, -20, -63, -71, 68, 37, -10, -8, -50, 88, -22, 61, -1, -27, -103, 79, -26, 21, 38, -13, -40, -52, -84, 24, 52, -32, 33, 19, -17, -70, -75, 47, -70, -14, 50, 12, -45, 92, 61, -42, 91, 7, -55, 60, 83, 94, 11, -13, 46, 42, 5, -66, 104, -58, 72, 79, 27, -43, -31, -28, 62, 27, -61, 35, -38, -4, -30, 59, -76, -13, -90, -49, -60, -28, -42, -19, -68, -31, 8, 53, -76, 33, -69, 0, 52, 27, -41, -74, 13, -3, -64, -24, -85, 78, -73, 32, -63, -69, -69, -98, 5, -68, -14, 47, -44, 98, 102, 51, -19, 53, -5, -48, 66, -15, -70, 71, -31, -27, -84, -25, 111, 55, 97, 12, 2, -71, -21, 41, -22, -89, 51, 107, 77, 28, 70, 55, -15, 87, 53, 59, -47, 73, 88, 16, 18, 3, 32, 102, -60, -1, 83, 54, 24, 48, -19, -26, 17, 35, -20, 39, 92, 84, -61, 82, 17, -101, -23, 28, -47, -42, -63, -18, 42, -102, -19, -11, 84, 58, -13, -89, 32, -18, -108, -57, 44, 0, 18, 98, 100, -3, -13, -56, 34, 53, 76, 52, 101, 50, -66, -74, -86, 38, 83, 21, 24, 39, -37, -13, -28, 30, -56, -25, -81, -22, -18, 61, -35, -21, -18, -98, 82, 47, -16, 62, 50, 39, -45, 62, 12, 71, -11, -43, -42, 52, -18, -93, 96, -102, 66, 87, 83, 94, 47, 51, 22, -52, 15, -25, 97, -42, -9, -88, -57, 77, -14, 51, -59, -29, -58, 8, -69, 4, -71, 9, 26, 49, -33, -52, 30, 23, 81, -68, -81, -66, 14, -9, 71, -64, 58, 56, -15, -57, 92, -45, 13, 54, -24, -97, -40, 16, -96, 59, 14, 82, -71, 23, -44, -87, 0, -110, -42, -20, -31, -71, -53, 57, 98, -4, -87, 20, -26, 32, -115, 16, 61, 11, -78, 20, -28, -79, 59, -4, -21, -36, 86, -21, -32, -9, 17, 33, -50, -36, 72, -70, 1, 67, -70, 59, -46, -63, 64, -72, -7, -73, -89, 95, 12, -51, -78, 26, 104, 31, 74, -62, 53, 50, 10, 10, 36, -52, 64, 3, -58, 50, -58, -85, -89, -65, 102, 13, 102, -70, 71, -11, -90, 85, -38, -96, 96, -48, 68, 103, -75, -21, -47, 96, -63, -37, -92, 12, -7, -23, 57, -89, 61, -84, -62, 24, -67, -21, 20, -85, 6, 6, 47, -42, 64, -39, 60, -80, -90, 74, 59, -17, -84, -51, -19, -85, 35, 38, -12, -15, -45, 11, -73, -79, -20, 62, 75, 8, 29, 36, -91, 73, -52, -19, 110, -56, -21, -24, -66, -30, -7, 67, -88, 0, -12, 82, 21, 93, 16, 13, -7, 6, -50, 74, 12, 67, 74, -45, 61, 42, 109, -93, 11, -47, -34, -117, 90, -69, 72, -56, -49, -115, 9, 42, 18, 19, 105, -42, -61, -1, -6, -80, 64, 39, 50, -71, -36, -63, -68, 117, -85, -71, 11, 99, 13, -65, 60, -73, 80, 98, -21, 11, 34, 82, 2, 90, 59, -33, 106, 26, -76, 49, 85, 24, 17, 55, 89, -19, 63, -43, 37, 15, -91, -66, 100, 24, 1, 21, -69, -100, -13, 0, -57, 87, -72, -47, -59, -1, 8, 45, -8, -42, -122, 74, -60, 1, 84, -61, 24, -77, 2, -26, -25, -42, -31, -116, 93, -21, 1, -98, -9, -50, 92, -23, 29, -100, -57, -60, 91, -20, -67, -70, 61, -109, 70, 36, 26, -41, 75, 45, -68, 9, 52, 51, -76, 44, 84, -103, 39, 69, 66, 44, 70, -85, -39, 59, -85, 84, 19, -43, 15, -35, -35, -15, 24, -64, 69, 51, -49, -4, -13, -18, 8, -34, -35, 59, -22, -16, -28, -21, -41, -96, 36, -1, -60, -72, 82, 39, 65, -72, 78, 65, 10, -64, 36, -78, -22, -57, -104, -80, -21, 38, 69, 61, 17, -31, -34, 79, 49, 30, -43, -117, 30, -33, 77, -63, -68, 22, -27, 10, 2, 20, 71, -80, 56, -3, -18, 51, 75, -22, -95, 68, -16, 6, 2, 65, 60, 61, 65, -56, 90, 51, -104, 30, -67, -36, -90, 4, 44, -85, 98, 77, 67, -44, 29, -47, -87, 8, 36, 83, 60, -87, -11, -96, 20, -60, 20, -106, -41, 13, 42, -60, 69, -34, 92, -8, -73, 36, 68, -8, -39, -98, -37, 89, -20, -10, -76, -71, 30, -23, -62, 99, -12, 76, -59, 58, -63, 11, -74, -52, -60, -11, 97, 76, 35, -86, 46, 118, 29, -90, 39, -87, 101, -64, 23, 53, -33, -13, 82, 41, 34, 20, 6, 88, -36, 25, 31, 91, -68, 60, 71, 43, 23, -54, -81, 86, -29, -110, -10, 66, 84, 61, -77, -85, -92, -95, 84, -57, 21, 4, 33, -85, -96, -78, 40, 45, 74, 46, -32, -88, 16, 7, 49, 22, -6, 34, 52, 92, -16, -52, -5, 33, 23, -7, -86, -99, 53, -89, 79, 67, 74, 19, 15, -94, 36, 55, 12, -12, -79, 91, 60, -63, 63, -10, -5, -4, -98, 45, -83, -56, 52, -55, -48, -40, 101, 12, -64, -51, -23, 112, 32, -40, -83, -92, -13, 98, -26, -59, 102, -42, -48, -83, 62, 79, -43, -32, 13, 64, 67, 65, -52, 37, -82, 40, -26, -94, 32, -78, -74, -76, 61, 1, 40, -20, -8, -107, 80, 37, 19, -58, -43, 60, -11, -42, -57, 19, -63, 80, -64, 86, -69, -64, 71, 26, -19, -55, -16, 32, -36, -84, 32, 91, 46, 64, 106, 83, 41, 66, -47, -45, 50, -15, -83, -57, -102, 47, -54, 82, -82, -60, -27, 30, 45, 99, 24, -67, -47, 65, 46, -89, 59, -46, 60, -15, 16, 72, -42, -71, 70, 40, 51, -25, 72, 12, -68, -74, -92, -43, 20, 36, 32, -56, 41, -78, -98, -54, -70, -90, 39, 72, -79, 29, 44, -18, 91, -21, 73, -18, -25, -23, -8, 67, -36, 31, 80, -48, -90, -49, -69, 108, -102, 91, 0, -22, 48, 59, 60, -28, -37, -97, -13, 37, -101, 8, -78, -23, -27, 44, 16, -69, -57, -71, -80, 35, -81, 6, 17, -69, 61, 58, 85, -65, 48, -19, 65, 38, -21, 54, -57, -70, 97, -83, -69, 29, -25, 4, 36, -48, -79, 85, -53, -19, 44, 104, 61, 8, 61, -66, 49, 18, -48, 74, 99, 41, 13, -15, 0, 17, -40, -110, 37, 66, 98, 15, -28, -27, 26, 33, 21, 19, 83, 35, -106, 39, 78, 3, -12, -84, 79, -25, 59, -74, 90, 68, -23, 81, -81, -70, -26, -62, -98, -8, -52, -102, -2, 12, -91, 63, 52, 41, 42, -55, 82, -67, 36, 72, 76, 65, -103, -61, -91, -23, -65, 11, 32, -32, 44, -10, -24, 37, 62, 63, -91, 76, -31, 83, -79, -96, -69, -88, 48, 36, -34, 20, 77, -75, -20, 116, -40, 31, 40, 72, -34, 49, -64, -71, -32, -68, -41, 86, -89, 41, 45, 89, -52, 66, -64, 71, -8, 58, -62, -3, -58, -66, 59, 49, 28, -62, -76, -21, -87, 87, -94, -62, -6, 93, 12, 41, 53, -35, 70, -12, 37, 77, 88, 19, 71, -100, 47, 72, -80, -83, 77, -9, -105, 84, 11, -38, -33, -10, -8, -23, -68, 104, -61, 64, -12, 57, 93, 78, -8, -121, 40, -27, -61, 14, -66, 86, -14, -19, 74, 56, 90, 71, 56, -55, 56, 66, -91, -68, -72, -21, -28, 11, -71, -77, -78, -14, 90, 58, 93, 26, -76, 64, -35, 72, -85, -69, -40, -44, 2, -42, -39, -7, -66, -32, -37, -10, -6, 40, 49, -21, -53, -17, -12, 31, -32, 77, -13, 27, -26, 66, -105, 8, 41, -63, -72, 10, -92, -42, 91, -51, 15, 19, 21, 85, -72, 89, 72, 31, -78, 92, 40, 96, -85, -65, -19, -69, -7, 47, -67, 87, 88, 56, -23, 60, -77, -27, -31, -56, -16, 66, 53, 4, 87, 14, -82, -65, 20, 22, 95, -91, 17, 66, 81, -41, -81, 8, -51, 101, -56, 105, 112, 11, 37, 70, -11, -90, -79, -10, -9, -36, -47, 49, -18, -14, -6, 74, -79, 53, 54, -82, 37, 96, 13, -4, -8, 73, -11, -79, 66, 82, -22, -67, 35, -67, -4, 41, 42, -65, -58, -47, 39, 76, -52, -30, 88, -76, 99, 58, -12, 26, -15, -91, 96, 17, -11, 82, -66, 20, 57, 1, -8, -62, 76, 9, 17, -84, -60, -98, -96, -16, -23, 41, 70, 46, -95, 37, -17, 7, 4, -3, -55, 111, -51, 81, -96, 60, -76, -51, 101, -86, 49, -79, 33, 45, -24, 89, 27, -52, 37, 65, 35, -67, -93, -86, 23, -4, 68, 54, -33, -24, -28, 27, -63, -88, -5, 60, -11, 101, -10, -104, -75, -54, -48, -5, -28, 0, -28, -95, 34, -62, -32, -59, -13, 34, -28, -19, 24, 92, 28, -45, -57, 94, -42, -80, 79, 80, 57, 39, 52, -11, -55, -73, 65, -29, 43, 71, 88, 70, 4, 22, 77, 64, 10, 60, 35, -75, -7, -12, 10, 2, -109, 31, 54, -44, 20, -14, 24, 18, -50, -87, 23, -50, -51, 67, 24, -9, 14, 77, -30, 7, -9, 43, -10, 19, -35, 48, 4, 28, 74, -32, -86, -49, -39, 83, 51, 20, -38, 45, 74, -32, -74, -87, 2, 27, 66, 57, -7, 74, 89, -87, -76, 27, -2, 91, 37, 102, 97, 32, 25, 74, 0, -13, -21, 8, 36, 96, -74, -82, -75, -70, 0, 90, 1, 1, 28, 28, -101, -5, 52, 42, -73, -44, -39, -62, 81, 40, -55, -101, 91, 68, -36, -71, -89, 66, -6, -95, -13, 99, -90, -75, 78, -6, 19, 65, -40, -2, 89, -25, -26, 56, -39, -62, -18, 42, -29, 5, 61, -47, -97, -60, -36, 58, 78, -60, -59, -16, 23, -18, -23, -94, 23, -25, 56, 23, -69, -25, -49, 87, -68, 39, -101, -9, 23, 74, 71, 59, 11, 88, 30, -101, 74, 91, 85, -23, 20, 12, -21, -65, -48, 98, 48, -19, 28, 93, -80, -35, 28, 36, 42, -72, -67, -107, -11, 4, 100, -88, 2, -15, -79, 7, 22, -49, -65, 72, 23, -81, 58, -31, -65, 47, -100, -15, -81, 44, 11, 120, 58, 49, 95, -79, 91, 89, 8, -54, 43, 27, 2, -56, -49, -9, 8, 39, 33, 10, -97, 36, -36, 52, -79, 28, -11, 56, -66, 74, -17, -85, -86, -14, -43, 29, -4, -15, 80, 16, -82, -35, -20, -58, 64, -14, 7, 2, 61, -25, 69, 51, -93, -89, -15, 65, -58, -50, -26, -57, 12, -66, -81, 41, 38, 44, 35, -91, -3, 53, 33, -7, -1, -12, -14, 96, -84, 50, 52, -102, 35, -72, 93, 47, -111, 63, 41, -62, 6, -1, 38, -24, 24, 54, 5, -96, -70, 82, -17, 0, 20, -15, 4, 61, 56, 42, -36, 88, -19, 23, 37, 39, 15, -19, 78, -3, 52, 11, 52, -79, 86, 56, -64, -30, 35, -8, -89, 22, -97, -3, -84, -56, 1, 34, -86, 73, 66, 2, -17, -86, 84, -24, -19, -54, -8, -102, -67, 99, 10, -70, 79, -49, 0, 55, -109, 113, -2, -103, -69, -59, 99, 68, 36, 79, -17, -58, 1, -49, -7, -60, 15, -95, -60, 73, -74, 38, 7, 73, -68, -19, -88, -81, -66, -42, 9, -3, -22, 89, 15, 39, -49, -31, 16, -10, 29, -63, -52, 83, -95, 81, -93, 27, 26, -73, -10, -15, -32, -24, 22, 50, -60, -19, -39, -34, 7, 60, 60, 86, -37, 123, 91, 9, -54, 86, -47, -36, 85, 55, -47, -50, -73, -38, 57, 5, 67, 45, 90, 64, 75, 63, 22, 71, -84, 21, -97, 13, 57, 91, 66, -7, 57, 105, -104, -66, -82, -42, -48, -70, 69, -57, 23, 71, -78, -12, 11, -112, -9, 45, -83, -15, -51, 80, 9, -48, 14, -51, -115, 34, 8, 5, -86, 10, 44, 47, -95, 10, 79, -31, 22, 82, -72, 3, -46, 40, -95, 29, -94, -16, -41, -56, -68, 4, 42, -46, 24, -74, 104, 53, 69, 6, 32, -26, -47, 70, -88, -12, -30, -4, -24, 14, -76, 17, 40, 65, 29, 36, -76, 14, 86, 34, 43, 12, -97, -87, -24, 21, 105, -126, 51, -35, 35, 20, -16, 15, -98, 57, -91, 34, -38, 73, 19, -99, 95, -4, 77, -66, 52, -38, 72, 53, -9, -42, 38, -8, 19, 26, 78, -56, -57, -11, 77, 18, 28, -15, -62, 64, -27, 62, -12, 82, 0, 14, 64, -81, -45, -86, -76, -43, -53, 100, -11, 77, 32, -96, -27, -54, 58, 90, -30, -25, 16, 8, -54, 46, -14, 4, 14, 23, 26, -21, 40, -27, 42, -8, -7, 98, 17, 107, 29, -24, -18, -70, -13, 86, -83, 9, -53, 3, 79, 15, 21, 5, -28, -72, -98, -53, -9, 10, -23, 27, -55, 17, -16, 81, -1, 68, -49, 18, 86, 17, -10, 79, 35, 96, 81, 75, -39, -37, -76, -41, 16, -36, -18, -30, -36, -53, 85, -77, 65, -51, -43, 4, 5, 16, 27, 30, -66, 37, 47, 21, -46, 112, -52, -46, 52, 63, 4, -14, 30, -15, -99, -69, -46, 83, 3, 104, 34, -56, 22, -30, 29, 78, -59, 35, 36, -76, 94, -116, -82, 51, -86, -6, -87, -74, -63, 40, 14, -45, -34, -37, 78, 99, 75, -9, 71, 30, -94, 82, -33, -26, 112, -50, 24, -45, 30, 61, 22, 47, -53, 65, 72, -29, 65, 7, 107, 11, 115, 53, 76, -34, -16, 4, 96, 34, 69, -106, 122, 43, 62, 109, -14, -117, -58, 78, 18, -14, 48, 68, 61, -84, -57, -77, -75, 2, 31, -61, 65, 96, 20, -12, -24, -2, 38, 4, 25, 92, 88, -116, 57, -97, 26, -49, -9, -59, 90, 114, -94, 99, 13, 67, 66, 90, 106, -19, 87, 19, 35, -49, -47, -41, -25, -120, -80, -38, -76, 62, 81, 58, 51, 57, -64, -41, 4, -49, -48, 56, 44, -72, -43, 33, -37, 22, -24, -78, -2, -22, -40, 23, -16, 12, -83, -57, 70, -109, -27, 40, -120, -25, 29, -56, -8, 12, -20, -76, -41, 113, -82, 29, 70, 0, 4, -17, 55, 125, 47, 53, 25, -36, -90, -67, 62, -75, -49, 6, -44, 64, -40, -50, 77, 98, 51, 45, -30, 73, -48, -48, -89, -44, 86, -43, 78, 36, -102, 79, 42, 77, 0, 38, 69, 84, 75, 18, 0, 63, 40, -50, 101, 76, 89, 33, 100, -94, 67, -41, 2, 24, 26, 7, -56, 31, -65, 11, -77, -4, -23, -98, -95, 5, -5, 53, -55, 13, -75, -34, -59, 43, -34, -53, 53, -47, 63, 86, -65, -56, -36, 44, -28, 41, -106, -12, -60, -102, -59, 23, 90, 67, 33, -79, 43, 46, -51, 85, -20, -21, -63, -80, -37, 12, -11, 15, -104, 12, 47, -51, -79, -98, 2, -75, 38, -93, -59, 66, 33, -55, -79, -66, 12, -2, -76, -94, 53, -91, -91, -5, 91, 78, 91, -20, -56, -17, 24, -105, -37, 52, -11, -54, 114, -94, 50, 22, -100, 21, 20, -73, -13, 59, -47, -45, 68, 73, -39, 13, 1, 14, -53, -42, 6, 81, 88, -21, -52, 9, -87, 113, 34, 34, 54, 82, -9, 44, 75, 62, 47, 70, 34, 3, -25, -40, -81, 66, 35, -10, 15, 65, -41, 18, -46, 80, -15, 50, 61, -93, -51, -17, -94, -78, -94, -24, -88, -77, -94, -96, 98, -27, 32, 32, -87, -38, 41, -48, 108, -80, 15, 15, -69, -78, -95, -88, 64, -86, 108, 40, -34, -55, -51, -23, -44, 11, -83, -14, -31, -78, 69, 62, 15, -29, -74, -13, 46, -47, -87, 56, 15, -95, -16, -16, -28, 11, -103, 84, -65, -15, -78, 48, -44, -62, -62, 17, -89, 15, -3, 30, 50, 12, 75, -77, 44, 31, 56, 30, 66, -16, 34, 102, -8, -20, 60, -53, 83, -79, 27, 79, -83, -29, -78, -33, -101, 83, -99, -6, -10, -3, -1, -7, -45, 39, 8, 35, 42, 21, 43, 88, -12, 93, 32, 0, 62, -42, 74, -8, -85, 56, 65, 73, 14, -62, -37, 25, -5, 105, 118, 52, -43, -76, -39, 31, 45, -76, -64, -80, 42, -23, 67, -19, 55, 43, -19, 17, -55, 81, 70, 27, 41, -56, -79, -3, -34, 52, 72, 75, -33, 37, -87, 80, -70, -43, -36, -88, -6, 30, -8, -77, -2, -15, -107, 46, -44, 8, -39, 88, -101, 14, 48, -76, -92, 63, 54, -61, 2, -7, 47, 97, -35, 27, -95, -75, -9, 72, 0, 30, 9, 38, -53, 17, 33, 52, 3, 46, 27, 97, 36, 15, -112, 61, -30, 46, 46, -105, 19, -55, -58, -21, 27, -3, 23, 20, -65, -66, 90, 41, -49, -47, -3, 67, 36, -94, 74, -60, 7, 79, 115, 32, -20, 30, 68, 16, -19, 46, -13, -77, 63, 18, 52, -92, -87, 0, 13, -56, 42, 13, -68, 75, 81, 67, 19, -1, -12, -53, -86, -20, -39, -40, 35, 33, 73, -54, -33, 79, -15, -59, -87, 18, 44, -41, 6, -94, -28, -35, -30, -71, -59, -24, -75, -78, 71, 21, 66, -1, 99, 42, 38, -65, -101, -62, -62, 52, 64, 51, -74, -72, 3, 80, 58, 67, -76, 80, 2, 87, 52, 48, -8, -3, -25, -29, 1, 101, 6, -31, 19, -68, 55, -97, -45, -7, 4, 8, 80, -62, -105, -71, 42, -33, 44, 29, 59, -17, -71, -34, 57, -36, -62, 73, -3, 17, -23, -21, 30, 72, -17, -67, 0, 37, 72, 12, 41, 70, -86, 5, -25, 91, -2, 28, -116, 26, 38, 6, 51, 0, 56, 40, 28, -91, 17, 69, 51, 80, 2, 27, -21, 49, 48, -50, -42, 24, 92, 10, 93, 80, 77, 15, 21, -44, 19, 13, -46, 39, -26, 34, -42, 29, 97, 54, 19, 67, -26, -54, -16, 36, 30, -74, 0, -97, 51, 43, -82, 58, 30, -68, -99, -3, 41, -58, 27, -51, -14, -79, -85, -65, -34, -29, -36, -54, -40, 5, -12, -90, 54, 66, -28, -91, 94, 2, -8, -15, -38, 22, -82, -13, 29, -42, -73, -15, -66, 13, -3, 71, -5, -61, -79, 20, -88, -63, 65, 93, 80, 42, 73, -97, -24, -32, 9, 26, -119, 21, -16, -38, 58, -72, -82, -39, 78, 69, -46, 81, -94, -37, 103, -80, -16, 28, -84, 70, 101, -1, -64, -36, 69, -63, 81, -45, -53, 57, 22, -73, 10, 92, 80, 39, -26, 38, -29, -44, 22, -73, 104, -103, 32, -35, 92, 63, -26, -43, 26, 63, -35, -70, 40, -85, -73, 29, -18, 2, -75, -7, 71, -34, 32, 11, -48, -24, 7, 43, -31, -53, -67, 68, -92, -102, 74, -104, 21, 57, 38, -67, 88, -43, 37, 48, 15, 94, -87, 23, 87, -63, 28, -30, -41, 53, 45, 6, -63, 25, -77, 20, -10, -44, 57, -49, -72, 27, -57, -51, 89, 90, 73, 81, 7, 23, -35, -63, -17, 97, 66, -11, -60, -43, 71, 15, 69, -106, 90, -24, -11, 48, -15, -50, -43, 20, -4, 72, 65, -66, 19, -62, 4, 49, -5, -87, -44, 44, 43, 103, 22, -72, 66, -86, 18, 20, -41, 82, 13, 9, -61, -22, -66, 59, 30, -33, -69, 56, -70, 13, 84, -85, 42, -86, 106, -84, 67, 105, -70, 82, 108, 36, -69, -77, -20, 7, -99, -60, 43, 54, 63, 105, 31, -39, -11, -92, 73, -78, 42, 42, -50, 70, -30, -9, -18, 63, -37, 82, -60, 83, 7, 78, -13, 61, -14, 16, -45, 65, 62, 80, 14, 49, 57, 79, -101, -9, -74, -106, 45, 39, 72, -53, -44, 79, -17, -42, -26, -23, 63, -20, 51, -55, -29, 111, -72, -29, 29, 87, 33, 52, -63, 26, 34, -8, 62, 6, -93, 78, -62, -77, -93, -41, -82, 63, -91, 80, 80, 5, 53, -51, -10, 19, 39, 21, 13, 62, 34, 51, -71, -81, 26, 50, -11, -23, -19, -84, -46, 14, 46, -81, 95, 75, -22, -56, 32, 48, -9, -35, 20, -63, -1, 90, 26, -26, -71, -82, -57, 24, 48, -62, -69, 88, 123, 23, 77, 11, 96, 48, 67, 18, 43, 12, 74, 65, 26, -86, -39, 8, -77, -27, 24, -16, -32, -14, 45, 79, -32, 109, -85, -99, -58, -8, -64, 86, 45, -76, -25, -52, 103, 30, 53, 13, -63, 49, -86, 41, -10, -36, -36, 61, 31, -79, 48, 76, -53, 12, 21, 7, -12, -9, 94, 40, 20, -87, -54, 17, -35, -3, 45, 82, -45, 4, 11, 2, 14, -51, -65, 42, -80, 65, 77, -25, -64, 32, 77, 83, -71, 4, -30, 24, -97, -28, -17, 94, -95, -14, -47, 3, -55, 6, -4, -64, 63, -47, 63, -95, 76, 70, 32, -15, 69, 76, 28, 64, 43, -96, 6, -44, -41, -26, -69, 27, -3, -65, -36, -57, 69, 54, -12, 33, -45, -35, -30, 52, -25, -28, -71, -25, -28, 27, 22, 48, 78, 19, -52, -64, -30, 56, -58, -20, -104, 40, 86, -77, -90, -76, 93, -15, 85, -53, 38, 31, 7, -16, 25, 25, 94, -57, 47, 72, 38, -81, -47, 77, -61, -40, 69, 56, 41, 43, 46, -21, 40, 74, -76, 78, -58, -45, 10, 48, -74, 91, -14, -40, 10, 32, -94, 75, -84, -2, 90, 97, -68, -17, 44, -75, -53, 31, 72, -27, 13, 25, 63, -20, 91, -45, -40, 59, 59, -7, -55, 13, -80, 28, -49, -9, 60, -3, 70, -36, -66, 10, -72, -96, 34, 26, 20, 72, -15, 54, 75, 27, -53, -72, 48, -87, 15, 73, 27, -91, 58, -23, -74, -29, 86, 27, 55, 20, 84, -52, 93, -83, 45, 24, 7, -32, -80, -66, 16, -79, -82, 62, 41, 87, 87, -46, -38, 31, 31, -113, -94, 50, 21, -41, -44, 33, 26, -22, -115, -47, 49, 6, -12, 77, -4, 112, 1, 66, 76, 90, -80, 5, -44, 53, 90, 88, 67, 52, 85, -8, -91, -98, -26, 56, -50, 32, 27, -34, 55, -102, -11, -61, -73, -70, -74, -66, 0, 7, 21, 48, 67, -93, -50, -65, 91, -56, 76, -43, -23, -37, 0, 29, 43, -87, -99, -80, 45, 56, -71, -3, 21, 59, 53, 96, -98, -14, -87, -21, 40, 4, 55, -20, 24, -45, -87, 31, 35, -30, 92, 0, 108, -35, 45, -91, 32, 37, 79, 56, 61, 49, -26, -44, -97, 93, -5, -33, 14, -84, 74, -65, -15, -13, 29, -18, -10, -46, 44, -21, -49, 86, 2, -70, -55, -54, 78, 2, -53, 6, 54, -77, 68, 15, 31, -55, -41, -65, -96, 46, 9, -93, -45, 81, -65, -41, 80, 88, 20, -67, -58, 113, 101, 74, -72, -29, 8, 89, 101, -23, -95, 96, -64, 65, -102, -63, -38, 57, -90, -57, -72, 9, 121, -82, -11, -62, 5, 45, -4, 44, 80, 83, 26, 84, -26, 47, -86, 50, -74, 80, 92, -57, 98, -106, 49, -4, -102, 8, -68, 47, -14, 5, 12, 10, 26, -54, 22, -74, 9, -28, 8, 107, -85, 86, 90, -63, 13, -56, 70, 28, 63, 80, -85, 46, -2, 23, 65, 74, -72, 56, 101, -16, 67, 28, -2, 7, 27, -95, -82, -62, 78, 12, 59, -28, 55, -40, 68, 113, 50, -20, 73, 24, -90, 1, 1, 40, -40, 58, 57, -64, 25, -55, -64, -61, -12, 24, 42, 5, 51, 26, 63, -42, 1, -59, 62, -68, 40, -99, -38, 69, -28, 15, -28, 50, -62, -4, 26, -3, -8, 29, -73, 73, 50, 35, 47, -39, 47, -28, 7, -68, -88, 86, -66, -52, 119, 2, -66, -26, -27, 8, -5, -72, 82, -77, -24, 36, -106, -123, 16, -79, -30, 17, -42, 99, -58, -64, 100, -43, 23, -50, -88, 35, -17, 63, 33, -81, -49, -21, -32, 96, -34, 54, 98, -81, 103, -81, -46, 104, -79, -56, -30, 82, 50, -104, 37, -27, -39, 14, -33, -92, 82, 113, 6, 59, -64, -6, -62, -35, 51, 91, -11, 59, -64, -42, -37, -77, -75, -9, 12, -19, -64, 79, 53, -71, 92, -29, 49, 70, 50, -87, -81, -15, 5, 105, 13, 10, 7, -55, -96, 32, 22, 81, -38, 42, -28, 64, 46, -95, 65, 65, 81, -43, 111, -29, 75, -18, -68, -28, -15, 4, 84, -73, 23, -72, 30, 110, -42, -77, -46, 55, -47, -48, 57, -31, 15, -47, 56, 22, -60, 31, -39, -77, 44, 99, -56, -83, 6, -69, 53, -26, -48, -41, 51, -73, 73, -5, 81, 50, 33, 20, -42, 58, 8, 4, -16, 92, -10, 101, 31, -55, -76, 96, 11, 94, -26, 28, -75, -66, -74, -1, 77, -66, -77, 27, -38, 55, 48, 53, -41, 45, 52, 27, -1, -56, 65, -79, 48, -70, 44, -28, 38, -9, -76, 43, -6, -44, 64, 14, -73, 67, 83, 24, 80, 65, 20, -31, -21, -40, 40, 73, -4, 15, 79, 55, 109, -53, -63, 43, -38, 114, 52, -28, -115, 50, -46, 66, -49, -62, 76, 102, -20, -67, 36, 59, -18, 84, -5, 19, -6, 90, -49, -77, 45, -5, -58, 71, 17, 23, 52, -83, 57, -81, -28, -65, -27, 9, 85, 52, 78, -5, -98, 64, 85, -30, 41, 71, 5, -101, -51, -57, 32, -88, 101, 46, -27, 17, -85, 41, -57, 18, -26, -85, -98, -120, -89, -21, 37, 62, 4, -51, 61, 91, 17, 8, 29, -88, -52, 0, -29, 15, 11, 66, -34, -2, 84, 63, 57, -27, -66, -37, -49, 94, -30, 79, 3, -2, -83, 59, 49, 44, -87, 64, -62, -30, 7, -68, 34, -72, 9, -84, 85, 59, 28, 54, -59, 83, -71, -82, -5, -66, -64, 37, 5, -41, 38, -74, 29, -3, -1, -14, -75, 80, -90, -50, -55, -54, -34, -19, -56, -56, 9, -36, -58, 101, -106, -98, -48, -24, -42, 68, 58, 91, -62, 63, -50, -80, 74, -52, -98, -82, -7, 37, 49, -69, 79, 90, -14, -58, 14, 23, 20, 71, 51, 42, 84, -1, 8, -84, 59, -63, -57, 75, -102, -92, -29, -2, -12, 71, -70, -63, 10, 81, 66, -103, -38, 62, -82, -83, -69, 69, 41, 23, 36, -87, 32, 43, 47, 31, 9, 28, 78, 13, -100, -3, -9, 30, 84, 20, -42, -30, 16, -36, 0, -57, 28, 84, -17, 16, 54, -61, -102, 10, -84, -47, 78, -8, 11, -8, -27, 63, 42, 40, 17, 67, -25, 15, -53, 92, -103, 4, -63, -93, -58, -97, 6, 33, -78, 45, -69, -45, 43, 82, 66, -92, -88, 34, 68, 18, 56, -63, -89, 97, 71, -3, -53, 47, -4, -1, 76, 94, -76, -71, -5, 49, -81, 88, 76, -21, -30, -10, 0, -1, -75, 71, 12, 71, 84, 15, 33, -6, 70, 86, 34, 45, -88, -22, -6, -71, -2, -92, 75, -51, -105, 53, 67, 99, 91, 81, 77, 55, 94, -32, -68, 52, -53, -77, 80, -57, -80, 78, 14, 4, 28, 90, -49, -100, 89, -5, -9, 105, -42, -49, -34, -46, 69, -89, -8, -85, 61, 8, 13, -60, 15, -63, -32, 35, -42, 64, 56, 54, 37, 46, 79, 98, -20, 33, 40, -4, 14, -9, -90, -18, -62, 0, 73, -75, -31, 87, 66, -7, 58, -73, -11, 58, -70, -35, 47, 30, -72, -21, 78, -29, -71, -81, 50, 80, -18, 78, 69, -97, 85, -88, -33, -69, -99, 12, -6, -42, -62, 29, -2, 10, 62, 41, 34, -2, -21, -87, -114, 33, -49, -28, 86, -98, -37, -41, 60, 17, -59, 93, -3, -115, -86, 7, 89, -61, 24, -5, 78, 23, 65, -81, -37, 71, -95, 45, -46, -58, 95, 52, -79, 85, -90, -17, 15, 68, -65, -55, 19, 49, 65, 41, 71, 55, -37, 86, 38, -86, 9, -22, 30, -28, 76, 61, -67, -8, 46, -89, 24, -32, 105, -18, 6, -15, -25, -39, 23, -26, 48, -65, -17, -4, -69, 91, -42, -35, -5, -14, 64, -10, -47, -14, -89, -27, -42, 4, -29, 22, -18, 43, -54, -54, -27, 46, 36, 81, 81, 48, -73, 2, 66, 67, -48, 8, 65, -46, -10, 22, -41, 83, 87, 1, -29, -60, 15, -75, 79, 58, -32, 46, -93, 49, -23, 12, -42, 88, -87, -73, -5, -77, -61, -58, 11, -21, 5, 74, 84, -30, -118, 18, -7, 20, -66, 80, 69, 44, -56, 11, 46, 2, 65, -88, -94, -4, 19, -103, -50, 91, -46, -33, -65, -58, 48, -33, 78, -52, -19, 63, -60, 32, 12, 16, 52, -5, 54, 28, -96, 103, -35, -61, 1, -20, -60, -46, 49, -19, 60, 111, 69, -30, -75, -27, -39, 75, -19, -101, -82, 94, -47, -77, -32, -70, 90, -3, -82, -85, 95, -17, -63, 67, -2, 76, -105, -35, 2, -63, 59, -10, -81, 1, 98, -58, -19, -12, -14, -13, 76, -11, 2, 21, 94, 77, -81, 69, 71, -74, 13, 17, -84, -96, 30, -23, 95, 44, 84, 61, -96, 16, 89, 28, 58, -1, -92, 78, -52, -40, 19, 31, -28, -56, 49, -8, -48, -14, -31, -66, -9, 82, -51, -63, 22, -36, -10, 24, 54, -23, 83, 60, -90, -60, 28, 68, 45, 50, -12, -10, -77, 25, -49, 95, -97, 90, 56, -60, -77, -76, 82, -4, -88, 20, -90, 78, -103, 50, 28, -105, -86, 51, 67, 60, 19, 41, -32, -53, -39, 118, -47, -41, 13, -74, -33, 64, 54, -74, 24, 63, -28, 27, 25, 95, 67, -19, 13, -74, 9, 91, 16, -34, 58, 85, 105, 5, 43, 15, -29, -83, -44, 31, -28, -22, -37, 18, -15, -61, 10, 13, 39, 83, -12, 54, -11, 78, -82, -108, 0, 94, -8, -94, -80, -25, -41, -17, 10, 4, -85, -50, 55, -69, -23, -79, -10, 37, -114, 83, -37, 63, -24, 64, -63, 57, -20, -54, 99, -52, 83, 66, 45, -13, 90, 95, 51, -91, 33, -72, -105, 90, -21, -22, 40, 43, -44, -42, -32, 59, -87, 29, 55, -27, -28, 71, -95, -70, -43, -93, -88, 31, -83, -73, 99, -63, 84, 91, 35, 28, 79, 89, -39, -22, -67, -26, -76, -69, -28, -40, -20, 105, 54, -90, 11, 85, -79, 7, -66, 43, 64, 15, -87, -87, -73, -28, 18, 22, -74, 31, -28, 99, -34, -46, 45, 74, 94, 12, -9, -50, -52, 16, 117, -31, 38, 41, 8, 40, 89, 43, 71, 31, 11, -92, 14, -90, -108, -109, -52, 5, 11, 17, -88, 88, -41, -47, -93, -9, 16, -47, 80, -71, -106, -58, 76, 77, -95, 44, -92, 65, 10, -81, -27, -5, 82, -82, -64, -82, 48, 10, 90, -11, 47, 101, -18, 102, -32, 62, 61, 85, -84, -93, -80, 11, -66, 23, 81, -84, 60, 5, 88, 113, -82, 11, -5, 36, -71, -70, -62, 36, -22, -108, -61, -12, -31, -8, -52, 2, -37, -72, -66, 25, -67, -37, -6, 52, -79, -56, 90, 103, 7, -50, 94, -19, -39, 38, -82, 7, -3, -7, 20, -11, -54, -10, -68, 80, -5, 79, -53, 41, -86, 12, -27, 101, 80, -77, -87, 85, -91, 35, 12, 42, 17, -91, 27, 36, 87, -59, 45, 69, -67, 53, -87, 93, -90, 28, -24, -97, -14, 31, -35, -64, 96, -34, -45, 54, -68, 24, -64, -93, -86, 31, -6, 58, -79, -68, -96, -58, -44, 18, -81, 67, -49, 26, 67, 82, -27, 74, 41, -20, -86, 87, 48, 35, 8, -63, -31, 14, 125, -55, -58, 20, -106, -38, -59, 63, -58, -6, -97, 10, 69, 87, 12, -68, -45, -41, -52, -78, 104, 24, 45, -91, -17, -71, 96, 33, -29, -76, -115, 60, 108, 6, 53, 7, -40, 2, 4, 46, -31, -98, 53, -72, 43, 68, 4, -16, -42, 47, 29, 41, 79, -92, 58, 89, 42, -7, -44, -12, -13, 18, -2, -80, 13, -4, -48, -33, -24, -44, 37, 6, -33, -81, -45, -37, -79, 30, -65, -32, -66, 79, -44, -53, -37, -14, -56, -22, -51, -4, -80, 67, -59, 15, -48, -50, -39, 34, -29, 19, 66, 109, -72, 32, 24, -1, 32, 64, 73, -30, 21, -8, 13, 74, 62, -83, 7, -70, 78, 27, 79, -36, -44, -44, 3, 103, -98, 69, -13, 3, -53, 10, -90, 107, 75, -75, -36, 60, -74, 74, 104, 43, 74, 85, 76, -34, 5, -69, 2, -96, 7, 70, -34, -88, 83, -56, 24, 61, 12, -31, -77, -76, -50, -45, -86, -44, 76, 49, 30, -13, 39, -18, 104, 77, -98, -11, 56, 7, -92, 32, -71, 76, 5, -70, -96, 3, 70, -73, 11, -20, 56, -41, -81, 87, -54, -4, -72, -3, -38, -53, -50, -55, 34, 13, 52, -37, -44, -45, 86, 2, 68, -77, -53, 82, -100, 2, 35, 5, -3, -118, 93, -47, -28, -108, -25, -46, 54, -77, 59, -67, -110, 72, -97, -5, -41, 53, -50, 12, 27, -40, -47, -40, 76, 51, 29, -35, 76, -31, -63, -56, -30, -98, -104, -76, -46, -86, -16, 98, -77, 61, -19, 22, 17, -84, -89, -76, 46, 4, -96, 68, 2, -35, 98, 49, 9, 83, 25, -105, 45, -67, -43, -4, 15, 4, -58, 4, -92, -73, 39, -5, -78, 45, -54, 19, -95, -95, 95, -82, -27, -44, 23, 76, 38, 77, 23, -30, -82, -102, -76, -40, -37, 85, 44, -61, -57, 8, 24, 39, -19, 16, 71, 5, -12, 55, 6, 56, -60, 103, 4, -3, -38, 90, -30, -84, -47, -13, 72, -33, -2, 20, -93, -40, -27, -3, -82, -20, -26, -15, -51, -12, 39, -61, -74, -88, -20, 88, 77, -3, -84, -77, 26, -83, -20, 93, -27, 77, -21, 106, 9, 78, 65, 71, 41, 91, -40, 20, -82, 86, -65, -35, 33, 77, 59, -88, -70, 72, -75, 29, -22, 64, 33, 81, 12, -8, -77, -63, 14, -110, 28, -78, 2, 91, -24, -62, -100, -9, 3, -12, -108, -92, -14, -91, 17, -70, 41, 86, 86, -78, -66, 90, -58, -83, -107, -66, 84, 29, -71, 94, -77, -21, -79, -17, 83, -94, 62, -79, 6, -114, 87, -57, -27, 60, 104, -40, -14, -50, -102, 52, 32, 82, -50, 47, -1, 104, 20, 38, -21, -25, -48, 7, -46, -74, 87, 27, -10, -33, -24, -60, 4, -78, -39, -15, 49, 85, 78, -89, 71, 17, -19, 104, -54, -98, 60, -96, -63, -76, 34, -63, 69, 65, 14, -53, 100, -63, -112, -2, -86, -6, 45, -76, -99, 27, 95, -15, -93, 68, -36, 89, 76, 58, -80, 20, 90, 63, -12, 28, -70, 28, -49, 77, -28, -74, -119, -66, -48, -23, 64, -79, -51, 22, 41, 55, -24, -57, -47, -13, -91, 74, 4, -107, 13, 52, -50, -50, -16, 81, -29, -22, 78, 69, -33, -74, -9, -81, -102, 81, 39, 21, -28, 92, 26, 28, 9, -61, -46, 54, 35, -3, 72, 45, -69, -61, 91, 71, -73, 69, -35, -7, 16, 5, 15, 83, 77, 110, -7, -59, 18, 12, 34, -5, 1, -33, 50, -80, 28, 66, 71, -82, -46, 37, -18, 66, -46, -47, -75, 114, -6, -5, -11, -82, 33, 11, -4, 27, 30, -10, -9, 34, -33, 103, -77, 22, -13, -86, 59, -66, -8, 88, -26, 24, 50, 58, -67, 68, -74, -91, 15, 16, 62, 3, -113, -2, -67, -63, -6, -74, 59, -41, -79, -97, 87, 8, 53, 32, 3, -77, -18, 73, 14, 11, -45, 10, -51, 22, -58, -44, 59, 20, -1, -4, -30, 70, 35, 35, -42, 88, -21, 72, -74, -63, -69, -55, 57, 83, -36, -110, -28, 58, 58, -26, 41, -76, -96, -95, 90, -77, 35, -36, 114, -58, -69, 68, 8, 110, 11, 14, -41, 16, -68, -26, 67, -102, -86, -6, -65, -19, 91, -114, -46, -24, -104, 36, 14, -7, -17, 54, 93, -29, 84, 21, 28, -2, 19, -32, -13, 29, 3, 78, 37, -71, 33, 113, -26, 56, -3, -76, -66, 105, -54, -50, -31, -83, -49, 12, 1, -13, 29, -33, 88, -95, -1, 51, -79, -65, 73, 70, -79, -12, -17, 40, 47, -58, -5, -37, -32, 11, 51, 44, 89, -31, 96, 55, -21, -66, -85, -60, 17, 45, -27, -20, 95, 62, 58, -71, 84, 47, -13, -19, 78, 87, -56, 74, 90, -56, 14, 50, -61, -26, -111, -48, -25, 31, -64, 91, 52, -11, 55, -68, -7, 4, 32, 31, 90, -48, 39, -5, -57, -89, 83, -81, 80, -70, 14, 92, -36, -97, 60, -96, 69, -40, 5, 36, -93, -32, -54, 84, -28, -14, 38, 70, 24, -75, 75, 34, -61, -32, -64, 98, -49, -17, 106, -48, 22, 62, 68, 60, 17, -59, -9, -55, 32, -13, -16, -69, 63, 78, -82, 65, 15, 58, -3, 39, -20, 75, 52, -61, 21, -34, -58, 80, 76, -107, 43, 54, 51, -59, -34, 74, 84, 78, 87, 66, -87, -13, 114, -56, 22, -75, 13, 53, -82, 42, -19, -73, -95, -100, -70, -67, 39, -75, -56, 7, 9, -22, 2, -77, 42, -47, -37, 77, -19, -97, 60, 68, -59, -2, 12, -65, 38, 27, 102, -78, 51, 5, 31, -13, -87, -94, -3, 62, -17, 9, 93, 8, -64, -9, -20, -58, 8, 6, 47, 95, -1, 29, -80, -70, -54, 94, -115, 45, 42, 56, -66, -112, -27, 19, -65, 87, 78, -45, 11, -46, 74, 35, -22, 58, -42, 25, 87, 29, 20, -86, 92, -6, 